elements: [O, Si]
E0: [0, 0]
deltaSplineBins: 0.001
embeddings:
  0: {ndensity: 8, FS_parameters: [1, 1, 1, 0.5, 1, 0.75, 1, 0.25, 1, 0.125, 1, 0.375, 1, 0.875, 1, 2], npoti: FinnisSinclairShiftedScaled, rho_core_cutoff: 5, drho_core_cutoff: 5}
  1: {ndensity: 8, FS_parameters: [1, 1, 1, 0.5, 1, 0.75, 1, 0.25, 1, 0.125, 1, 0.375, 1, 0.875, 1, 2], npoti: FinnisSinclairShiftedScaled, rho_core_cutoff: 5, drho_core_cutoff: 5}
bonds:
  [0, 0]: {nradmax: 3, lmax: 4, nradbasemax: 15, radbasename: SBessel, radparameters: [5.25], radcoefficients: [[[1.3929563534486942, -0.17527310752888967, 0.092953929972426186, 0.0073466638647451737, -0.044486549957567102, 0.076487107849809124, -0.058507790396707005, 0.10152952170818762, -0.11687944507464949, 0.11263902169592692, -0.07507263170140055, 0.028779925958821308, 0.0032294471211979552, -0.011163638772163968, 0.0068864759805152735], [1.2039419383746444, -0.092695199196486014, -0.17325666375663124, 0.1027897747558254, -0.0022773314106830454, 0.014191576579309336, -0.0014704450581880201, 0.0039170773259178844, 0.039293693924344085, -0.068144080811271462, 0.096489930345462299, -0.081451460351520538, 0.056653654741354358, -0.022922408981479646, 0.0090409953234288753], [1.4506048948455528, -0.019108404270571176, -0.14242161622099617, 0.084656783968782845, -0.10409358844964653, 0.043370672827151381, 0.062734951425790789, -0.082161622185652802, 0.037728471755022031, 0.0024956256449273672, -0.029185618662149308, 0.042026227445712355, -0.027131145333906277, 0.00094149800719504852, 0.0074786067687975253], [1.2308612823742275, 0.07550748067475585, -0.039773651376377388, 0.050070429932316342, -0.082196482820927036, 0.040586478546945338, 0.077379836017167081, -0.0026838639678724548, 0.022125092259802279, -0.044748569668221702, 0.043695049734107629, -0.018043613311181268, 0.036449055686678757, -0.017527825878485621, 0.0040890432801424931], [1.0515504913907141, -0.082709132400349647, -0.022552347811410991, 0.13312583544795395, -0.14546025765287535, -0.11527923828625315, 0.094726157950543705, -0.031688622508717311, 0.014591518208729034, -0.0072695026750160463, 0.0019351094367882652, 0.015270413325341774, -0.046699290805860223, 0.022379363625224583, -0.014421721156728295]], [[-0.028939988976083186, 0.83268085294801475, -0.32201348689800641, 0.095162255281624489, 0.057990862801094958, -0.074538084020447287, 0.097619862245637554, -0.0094038766792988726, -0.011369694999972001, 0.014727048607457504, 0.014263079217200518, -0.029952054958638761, 0.043767063002311084, -0.027983677648143159, 0.01452680822282211], [-0.17969518789204822, 0.8997260808760249, -0.17517521561881233, -0.0030662126437181799, 0.018750253554466103, -0.045219857854574511, 0.086537561917714056, -0.033318035579509971, 0.027393137568886009, 0.0017690568157937869, 0.0069437295431362053, 0.00034695532289380574, 0.0086878936907832851, -0.00020921203238338516, 0.0053320654202415755], [0.010914544701952451, 0.93575434939014079, -0.26024271907560237, 0.00074622631332820215, -0.012526329403342824, 0.024289058224746491, 0.022358891964980438, -0.054466379193167408, 0.086719060249547342, -0.10512263967703114, 0.10309356432973707, -0.07826880325887059, 0.05246451239720084, -0.029071574605252812, 0.011488808341113774], [-0.016559992926414659, 1.0076313127780092, -0.13697174654107844, -0.041279380269113874, 0.039969492988089356, -0.0027341296318976992, 0.04456073203911981, 0.026117511761300151, 0.0054760819492752659, -0.024671776648675987, 0.042173861790700297, -0.032800728527613315, 0.042422138343847886, -0.018770346485474293, 0.0085700879760510183], [-0.081065210746740279, 0.9254205229098228, -0.10456965548289261, -0.1564382612196642, -0.057307638719078999, -0.029186506524363068, -0.042327928359122344, 0.068376924433041941, -0.003772762979022474, -0.053109927127436424, 0.050989122747125581, -0.0074807596611498302, -0.049938284233487791, 0.034125918432871383, -0.024285779691101791]], [[-0.016003914572525479, 0.29087950798707263, 1.2332752627860819, -0.37659783020673931, -0.28760965091895008, 0.32880744430200315, 0.14631897791592313, -0.20736553151317266, 0.16859701703231658, 0.037632625312484916, -0.16533092461742013, 0.1920672277487977, -0.063544644507232365, 0.0083807815136140908, 0.020694232755276966], [-0.16623682700666206, -0.13205190434162575, 0.87575516753040306, -0.25313037815175193, -0.057843468197474546, 0.10800923590998231, 0.067466953096850843, -0.022507005322530249, 0.019014774325952416, 0.09671441224274574, -0.076396107536888788, 0.057966490238051324, -0.00073457038273289749, 0.0089005990031049368, 0.0053261985620118727], [-0.036276519772059056, -0.059156486789088761, 0.93188619422925589, -0.157802004700307, -0.03186972525389694, 0.022231900941789839, 0.055448504179190936, 0.023668462729789605, -0.035751932795057374, 0.08863062586791555, -0.071396683035481717, 0.045658531822586737, 0.0083286786242822777, -0.0049726452410496069, 0.0011325336480765827], [0.0023176758903360141, 0.019709901450091986, 0.87796502284757638, -0.24898809293939525, -0.1064912517432732, 0.098515325750158922, 0.00099978101406162701, -0.046017514917957025, 0.09032393177182603, -0.0092915778321293312, -0.03174718187526978, 0.039453802049141805, -0.016321354016046206, 0.0060091786951888384, 0.012628048003634425], [0.0022153168348218294, -0.025144713097866461, 0.80471650975819164, -0.19690840834506088, 0.071220247165992678, 0.19674927546018417, -0.035399651124466726, 0.0096502107577657436, 0.13160498548304139, -0.053367895781547908, 0.056153993630197227, 0.053152306779750046, 0.034432355162090297, 0.0082884151078789995, 0.010421842627612522]]], prehc: 0, lambdahc: 0, rcut: 5, dcut: 0.01, rcut_in: 0, dcut_in: 0, inner_cutoff_type: distance}
  [0, 1]: {nradmax: 3, lmax: 4, nradbasemax: 15, radbasename: SBessel, radparameters: [5.25], radcoefficients: [[[1.3313591754367318, -0.23408651669692596, -0.14351000530857402, 0.25122799810344737, -0.094739833365815221, 0.003866367302812544, 0.046325019516683288, -0.067652562187437398, 0.092863817474080401, -0.093977117664389764, 0.07349433808969888, -0.044798735281110065, 0.024072817455037546, -0.010658249783055414, 0.005297632346071778], [1.5945375530012338, -0.21497963074540968, -0.34928151901445148, 0.27088341194580423, 0.014162761071846591, -0.067067007105821572, 0.016752880068833673, 0.02064250619119162, 0.012788221663793982, -0.037344353011256583, 0.044068909959423821, -0.024342489969604343, 0.015673931636109108, -0.0079641721131995802, 0.0052180025347083794], [1.3732212233822407, -0.057124591681092692, -0.29305192259497226, 0.14266395141941393, 0.065635607413251501, -0.049008167459466019, 0.017759466136200081, -0.024170224059766997, 0.04077822695088977, -0.044257790189474566, 0.033045191387476185, -0.021641402476866502, 0.0066572504049469457, -0.0041191141285563506, 0.0012825339675465342], [1.4032875524479729, 0.18985580338302396, 0.11048993123860484, 0.1943454713549195, 0.032035107307168791, 0.16456422174811716, -0.0028292827751238989, -0.029301227248233253, 0.13247025368878879, -0.11724571583724555, 0.15935601231675794, -0.12759873437477082, 0.10343519322845665, -0.050620861281722516, 0.030327786949098337], [1.3595575379724927, 0.42038634675398606, 0.034899134196705262, 0.094288886547691131, 0.30677521708306438, 0.12223173672829421, 0.075126032153851816, 0.087273669841621784, 0.048820994987858246, 0.096248303555883472, 0.056229896660526184, 0.0082375124713688682, 0.070691444355427846, 0.027522443561619127, 0.024229010797993878]], [[-0.054425935306763581, 0.7585256584968697, -0.19763165659603193, 0.14222893276275328, -0.025358653784835528, 0.01395740396253386, 0.081505028687858083, -0.11775003249378808, 0.13707196955969209, -0.11410171939985153, 0.088985307180257461, -0.058703375261460689, 0.040851758432468376, -0.020552418206494002, 0.0091048633335319273], [-0.12227896466562754, 0.77329417769751285, -0.28457824456986347, 0.15717670373187528, 0.076160040807300475, -0.072895036714700837, 0.12373337958564232, -0.082666063445798535, 0.085705923733104261, -0.057964710065525962, 0.060416078635939424, -0.032085970214208559, 0.020030626874773194, -0.0042551391759996799, 0.0028225246055844583], [0.057625794605605442, 0.78371150139504819, -0.43706649619409671, 0.25457957985010243, 0.037870290323427994, -0.09960308112212661, 0.19797830870059785, -0.18527403741683765, 0.17954562378326794, -0.11790647895816106, 0.081557912857372988, -0.03110198799050214, 0.0063443832853845193, 0.0078307461013499349, -0.0020161468578850828], [0.11731928213644732, 1.3366486171915195, 0.039361707048026703, 0.10151944150799858, 0.24357784311723213, 0.056746081599572562, 0.18047225305266201, -0.022512893145181144, 0.018533002897332625, 0.11402695431675253, -0.097230693425299053, 0.13269037490230712, -0.086536836051691893, 0.067102643627726125, -0.0079514588193067039], [0.10962088184084522, 1.231356145672128, 0.095693152452754837, 0.10713979004466294, 0.26068578488370986, 0.25303678982461703, 0.1575274416958965, 0.020256168841474371, 0.079057298805377318, 0.11827551786533641, 0.050775834765395773, 0.035017116321572027, 0.059806067928507733, 0.067336426189592805, -0.011014699458166809]], [[-0.091857452139031154, 0.14701540511527489, 1.066763501793025, -0.41330054664126009, 0.060409956118676243, 0.23116455391214236, -0.12507371188903577, 0.11911362499612389, -0.043933080127023502, 0.037378835864472659, 0.0054110978566047022, -0.021846812646429428, 0.06586209093280547, -0.046648742411974864, 0.029794161781732612], [-0.21565592267540179, 0.12960352911120224, 1.0887895420138367, -0.27779238012995766, 0.049060289753608495, 0.15769828605246466, 0.0010145677825621811, 0.048489270306828147, -0.031628629306284226, 0.072210935220214573, -0.00029409304721002863, -0.0084253090812185134, 0.036909394098537572, -0.020300878022655757, 0.014160188859490979], [-0.09385765955198308, 0.093158476391245623, 1.2403929998039387, -0.092566283788371687, -0.028946251638932489, 0.16758302896663951, 0.086578162754578677, 0.095727684562929904, -0.037059334541409597, 0.10407685551977713, 0.026396229815361945, 0.0042481835889477057, 0.042901655916061675, -0.0089022163629602028, 0.032039662837190536], [-0.02404000867173562, 0.13626173498425581, 1.0570014257892997, -0.28119402513868313, 0.057665726343137838, 0.29192129049142929, -0.0093010629497187781, 0.055152910799168411, 0.012801307501840345, 0.012663125977430988, 0.048724639531481165, -0.039638683902517659, 0.057297538731342773, -0.021650160704024465, 0.023301845885759207], [-0.33121322841129514, 0.12507810380428094, 1.1913359823843528, -0.24026313651461312, 0.07141192253432023, 0.270061914091282, 0.12330744248402545, 0.070120393148343216, -0.0086309220075643338, 0.13394505710986429, 0.070183716714871058, 0.0074325148601849401, 0.074391410382419074, 0.035888944914909987, 0.023000563871754361]]], prehc: 0, lambdahc: 0, rcut: 5, dcut: 0.01, rcut_in: 0, dcut_in: 0, inner_cutoff_type: distance}
  [1, 0]: {nradmax: 3, lmax: 4, nradbasemax: 15, radbasename: SBessel, radparameters: [5.25], radcoefficients: [[[1.3313591754367318, -0.23408651669692596, -0.14351000530857402, 0.25122799810344737, -0.094739833365815221, 0.003866367302812544, 0.046325019516683288, -0.067652562187437398, 0.092863817474080401, -0.093977117664389764, 0.07349433808969888, -0.044798735281110065, 0.024072817455037546, -0.010658249783055414, 0.005297632346071778], [1.5945375530012338, -0.21497963074540968, -0.34928151901445148, 0.27088341194580423, 0.014162761071846591, -0.067067007105821572, 0.016752880068833673, 0.02064250619119162, 0.012788221663793982, -0.037344353011256583, 0.044068909959423821, -0.024342489969604343, 0.015673931636109108, -0.0079641721131995802, 0.0052180025347083794], [1.3732212233822407, -0.057124591681092692, -0.29305192259497226, 0.14266395141941393, 0.065635607413251501, -0.049008167459466019, 0.017759466136200081, -0.024170224059766997, 0.04077822695088977, -0.044257790189474566, 0.033045191387476185, -0.021641402476866502, 0.0066572504049469457, -0.0041191141285563506, 0.0012825339675465342], [1.4032875524479729, 0.18985580338302396, 0.11048993123860484, 0.1943454713549195, 0.032035107307168791, 0.16456422174811716, -0.0028292827751238989, -0.029301227248233253, 0.13247025368878879, -0.11724571583724555, 0.15935601231675794, -0.12759873437477082, 0.10343519322845665, -0.050620861281722516, 0.030327786949098337], [1.3595575379724927, 0.42038634675398606, 0.034899134196705262, 0.094288886547691131, 0.30677521708306438, 0.12223173672829421, 0.075126032153851816, 0.087273669841621784, 0.048820994987858246, 0.096248303555883472, 0.056229896660526184, 0.0082375124713688682, 0.070691444355427846, 0.027522443561619127, 0.024229010797993878]], [[-0.054425935306763581, 0.7585256584968697, -0.19763165659603193, 0.14222893276275328, -0.025358653784835528, 0.01395740396253386, 0.081505028687858083, -0.11775003249378808, 0.13707196955969209, -0.11410171939985153, 0.088985307180257461, -0.058703375261460689, 0.040851758432468376, -0.020552418206494002, 0.0091048633335319273], [-0.12227896466562754, 0.77329417769751285, -0.28457824456986347, 0.15717670373187528, 0.076160040807300475, -0.072895036714700837, 0.12373337958564232, -0.082666063445798535, 0.085705923733104261, -0.057964710065525962, 0.060416078635939424, -0.032085970214208559, 0.020030626874773194, -0.0042551391759996799, 0.0028225246055844583], [0.057625794605605442, 0.78371150139504819, -0.43706649619409671, 0.25457957985010243, 0.037870290323427994, -0.09960308112212661, 0.19797830870059785, -0.18527403741683765, 0.17954562378326794, -0.11790647895816106, 0.081557912857372988, -0.03110198799050214, 0.0063443832853845193, 0.0078307461013499349, -0.0020161468578850828], [0.11731928213644732, 1.3366486171915195, 0.039361707048026703, 0.10151944150799858, 0.24357784311723213, 0.056746081599572562, 0.18047225305266201, -0.022512893145181144, 0.018533002897332625, 0.11402695431675253, -0.097230693425299053, 0.13269037490230712, -0.086536836051691893, 0.067102643627726125, -0.0079514588193067039], [0.10962088184084522, 1.231356145672128, 0.095693152452754837, 0.10713979004466294, 0.26068578488370986, 0.25303678982461703, 0.1575274416958965, 0.020256168841474371, 0.079057298805377318, 0.11827551786533641, 0.050775834765395773, 0.035017116321572027, 0.059806067928507733, 0.067336426189592805, -0.011014699458166809]], [[-0.091857452139031154, 0.14701540511527489, 1.066763501793025, -0.41330054664126009, 0.060409956118676243, 0.23116455391214236, -0.12507371188903577, 0.11911362499612389, -0.043933080127023502, 0.037378835864472659, 0.0054110978566047022, -0.021846812646429428, 0.06586209093280547, -0.046648742411974864, 0.029794161781732612], [-0.21565592267540179, 0.12960352911120224, 1.0887895420138367, -0.27779238012995766, 0.049060289753608495, 0.15769828605246466, 0.0010145677825621811, 0.048489270306828147, -0.031628629306284226, 0.072210935220214573, -0.00029409304721002863, -0.0084253090812185134, 0.036909394098537572, -0.020300878022655757, 0.014160188859490979], [-0.09385765955198308, 0.093158476391245623, 1.2403929998039387, -0.092566283788371687, -0.028946251638932489, 0.16758302896663951, 0.086578162754578677, 0.095727684562929904, -0.037059334541409597, 0.10407685551977713, 0.026396229815361945, 0.0042481835889477057, 0.042901655916061675, -0.0089022163629602028, 0.032039662837190536], [-0.02404000867173562, 0.13626173498425581, 1.0570014257892997, -0.28119402513868313, 0.057665726343137838, 0.29192129049142929, -0.0093010629497187781, 0.055152910799168411, 0.012801307501840345, 0.012663125977430988, 0.048724639531481165, -0.039638683902517659, 0.057297538731342773, -0.021650160704024465, 0.023301845885759207], [-0.33121322841129514, 0.12507810380428094, 1.1913359823843528, -0.24026313651461312, 0.07141192253432023, 0.270061914091282, 0.12330744248402545, 0.070120393148343216, -0.0086309220075643338, 0.13394505710986429, 0.070183716714871058, 0.0074325148601849401, 0.074391410382419074, 0.035888944914909987, 0.023000563871754361]]], prehc: 0, lambdahc: 0, rcut: 5, dcut: 0.01, rcut_in: 0, dcut_in: 0, inner_cutoff_type: distance}
  [1, 1]: {nradmax: 3, lmax: 4, nradbasemax: 15, radbasename: SBessel, radparameters: [5.25], radcoefficients: [[[1.2216259057910677, -0.25926903112335109, -0.038239024951743757, 0.21540490404658413, -0.22157663508885544, 0.10785020271172847, 0.067052248849304746, -0.17645541209467858, 0.18175018949616031, -0.12356233254506081, 0.049717008200324257, -0.0041656949674181406, -0.010790260332209074, 0.010949294372474565, -0.0039353896171741131], [1.179051241951256, -0.070735112842314887, -0.21264010156555721, 0.050342191653259691, 0.061364171338664661, -0.041810554992040887, -0.0059352100913163267, -0.020008543137766628, 0.0068300942090579733, 0.0064682022952183508, -0.017366064074498835, 0.016347865255923324, -0.01548799095861488, 0.019072979906629262, -0.0061308366542943069], [1.1035267594243474, -0.082178909170021977, -0.073344011895502062, 0.061948057313769282, -0.053417339013547921, 0.020288508469063677, 0.059630570414609695, -0.067557583342678237, 0.022785188022505797, 0.0011818847392893611, -0.029811646555361431, 0.026464879162352482, 0.0010759634531206288, -0.00029702551988954832, -0.0069220648610406159], [1.3024692493185035, 0.189303078373881, -0.089769825396229685, 0.014098661146861048, 0.073358645462623689, -0.011621195017956403, 0.070329721109603047, 0.047006333578209145, -0.055168093570825368, 0.017291812452724518, 0.019632842518337641, -0.011208688132760226, 0.012541617743260763, -0.0068634716986219896, 0.0055738253312886347], [1.2632260256601189, 0.14553170557219516, -0.059094653221844901, 0.038927991231266945, 0.07962078549277446, 0.049073531769009367, 0.031863762091335616, 0.00093317607487720619, 0.068589535558894493, 0.0010585247843224314, -0.05481185825753683, 0.085545503402958079, -0.058976537832529478, 0.034321167709795937, -0.0082670088103095479]], [[0.16481682842936285, 1.0491637806186069, -0.12044805618354738, 0.043832722509497234, 0.066706381754116834, -0.037472383116685951, 0.092988084307013122, 0.011793606091680462, -0.050318277694232097, 0.09064863836322111, -0.072512570178359423, 0.041737079703452681, -0.01798536513216584, 0.0077461476200888398, 0.0069782339700306265], [0.19216764958489263, 1.0610719271281444, -0.11289115350419159, 0.086310898284127135, 0.10736896716773672, -0.058961540767127438, 0.077038561525036534, 0.070063141441512863, -0.081532030602272307, 0.06304887782822427, 0.033762037747105858, -0.064157297754216275, 0.070762684153423808, -0.063124804447387647, 0.04284378418684523], [0.016061690458117426, 1.1126506134341827, -0.099574134274408657, -0.16248119046403087, 0.10996857128355077, -0.017216813330216747, -0.048276603993362144, 0.12865255640743695, -0.10627404377785739, -0.02700190994928504, 0.11686999577360156, -0.11967989813913552, 0.11664268253711296, -0.061294799300230629, 0.011409178502838362], [0.16475375906554227, 1.2230249840545446, 0.011263255044301262, -0.099694317484787992, 0.005895579664084544, 0.011223988051734675, 0.046580565352982675, 0.11318282839936591, -0.027488925739506863, -0.032341976610416774, 0.058089614412126879, -0.035001118427641413, 0.038242330997100664, -0.018075249002597073, 0.022017267139084688], [0.19589432015977437, 1.2376916488579439, -0.016494002894571699, 0.0083960581072636473, 0.24688038862309913, 0.09480378834791256, -0.011493220276872886, 0.091913300153479219, -0.0451815833614485, -0.047796691427532303, 0.056901968224178104, -0.048888859564728208, 0.083515031836542949, -0.055199236787250666, 0.0203119639368348]], [[-0.038329292372694612, -0.056228463236197179, 1.0078050541870522, 0.09139153196651445, 0.14606524755140227, 0.12188450950549662, 0.025913953685140965, 0.02183344225294797, 0.026538451591448711, -0.0030342473993731408, 0.047864676037685669, -0.031587024083778052, -0.015160540611131201, 0.02334855780517852, 0.0068217180572031563], [0.026686939519260038, 0.11061842929641884, 1.0748161289257303, -0.10870082653926924, -0.19484345104270759, -0.16388476153596107, -0.086593707927035982, 0.055594194444261738, 0.079575776288631564, -0.024978544114830054, -0.01110204060379877, 0.019335103911968361, -0.021510943777023131, 0.024948177329492345, -0.020091823428671236], [-0.059040422078919318, 0.043547924074223053, 1.1230310440341955, -0.0028271957961413571, -0.10023201237321659, -0.079377179016203253, -0.026654552122893509, -0.020559535642248383, -0.10896114835414486, -0.076707332526893157, 0.04891691770570742, -0.01372626981216925, -0.016700744386912568, 0.064780408502490644, -0.090525145080496444], [-0.10025191077313156, -0.030941362928795246, 1.0564393793563704, -0.18106951202358693, -0.37515237767513027, -0.17310042629714531, 0.045063984717657317, 0.087993039442780974, 0.047673852003903151, -0.060059556757087816, -0.026436753541019577, 0.048462606555402098, -0.029377725085449467, 0.018826290178918913, 0.020302359351825762], [-0.17771800502532836, -0.066984547357994875, 1.1338945020325053, 0.20483176708429798, 0.28256651177371644, 0.10614246515853597, -0.12139565211742492, -0.0087279371288902854, -0.068616804376814444, -0.1906749111288509, 0.069080703036293795, 0.055800655312597043, -0.14583498357387162, 0.017195781922129845, 0.06010311133383181]]], prehc: 0, lambdahc: 0, rcut: 5, dcut: 0.01, rcut_in: 0, dcut_in: 0, inner_cutoff_type: distance}
functions:
  0:
    - {mu0: 0, rank: 1, ndensity: 8, num_ms_combs: 1, mus: [0], ns: [1], ls: [0], ms_combs: [0], ctildes: [-0.16099537488201357, 0.073622435385282431, 0.17823969699859896, -0.070127852596230528, -0.097988398879225766, -0.25819985898750636, 0.14142263369252575, 0.32589679572700281]}
    - {mu0: 0, rank: 1, ndensity: 8, num_ms_combs: 1, mus: [0], ns: [2], ls: [0], ms_combs: [0], ctildes: [-0.4667905967363124, 0.48482161238917193, 0.35611163501723153, -0.16528260405530021, 0.0983412288340519, -0.12779663581345582, 0.11308239020612464, 0.20488045806726335]}
    - {mu0: 0, rank: 1, ndensity: 8, num_ms_combs: 1, mus: [0], ns: [3], ls: [0], ms_combs: [0], ctildes: [-0.27949561652172455, 0.33062548532888247, 0.028382676888041355, -0.22172816315347266, 0.15927507084375328, -0.096392849373153178, -0.032176667705444147, -0.0056549851360187938]}
    - {mu0: 0, rank: 1, ndensity: 8, num_ms_combs: 1, mus: [0], ns: [4], ls: [0], ms_combs: [0], ctildes: [0.082714905656994173, -0.15165317044224189, -0.17813645452226012, -0.011038019692243708, -0.035982012148716762, -0.11038150970060785, 0.028827368428294631, 0.0087041644494243262]}
    - {mu0: 0, rank: 1, ndensity: 8, num_ms_combs: 1, mus: [0], ns: [5], ls: [0], ms_combs: [0], ctildes: [0.075000075057402665, -0.051885776714963146, 0.063471171800050324, 0.21425385343285988, 0.042749133088914329, 0.082730185781377918, 0.1205162610688303, 0.17024804550847181]}
    - {mu0: 0, rank: 1, ndensity: 8, num_ms_combs: 1, mus: [0], ns: [6], ls: [0], ms_combs: [0], ctildes: [-0.20412543638080588, 0.043964970209624268, 0.040536579857469258, -0.15740614695121211, 0.0057626367695646791, -0.083401152735683548, -0.091588088445177615, -0.18519240943018556]}
    - {mu0: 0, rank: 1, ndensity: 8, num_ms_combs: 1, mus: [0], ns: [7], ls: [0], ms_combs: [0], ctildes: [0.099376652505116042, 0.10169498864845559, 0.076978724529752518, -0.096234073294905909, -0.020400705530661381, -0.13816736982963626, 0.039358052153887796, 0.060366819773415785]}
    - {mu0: 0, rank: 1, ndensity: 8, num_ms_combs: 1, mus: [0], ns: [8], ls: [0], ms_combs: [0], ctildes: [0.16008096375259379, 0.063343075240701388, 0.01039466192489295, 0.13485303469198029, 0.064056320474838085, -0.038490825815080038, 0.038790600642437875, 0.12120901723624061]}
    - {mu0: 0, rank: 1, ndensity: 8, num_ms_combs: 1, mus: [0], ns: [9], ls: [0], ms_combs: [0], ctildes: [-0.20517081173341029, -0.10591732417246026, -0.031522529798324837, -0.1246198086255044, -0.04722013886845116, -0.0955790804158137, -0.11865491561209293, -0.22782757465724157]}
    - {mu0: 0, rank: 1, ndensity: 8, num_ms_combs: 1, mus: [0], ns: [10], ls: [0], ms_combs: [0], ctildes: [0.11744957488845784, 0.0600319599577002, 0.10868149840312699, 0.07203147896510316, 0.036909363112697699, 0.010545387081363026, 0.10814202524588705, 0.24374121525341752]}
    - {mu0: 0, rank: 1, ndensity: 8, num_ms_combs: 1, mus: [0], ns: [11], ls: [0], ms_combs: [0], ctildes: [-0.010716101512416611, 0.013085357142487956, -0.089021146673244622, -0.017583289202096848, -0.011240479849303375, -0.025824991802813307, -0.091876432143506187, -0.17119979384001896]}
    - {mu0: 0, rank: 1, ndensity: 8, num_ms_combs: 1, mus: [0], ns: [12], ls: [0], ms_combs: [0], ctildes: [-0.004214755249062568, -0.0008477370205803201, 0.10903877851060885, -0.011806776576171603, 0.00011842290361228143, -0.013438196404546281, 0.0024721419870086837, 0.086295974162878097]}
    - {mu0: 0, rank: 1, ndensity: 8, num_ms_combs: 1, mus: [0], ns: [13], ls: [0], ms_combs: [0], ctildes: [0.026805800793531401, 0.035571668754483213, 0.0075839073515388657, -0.0061190218350962704, 0.017255185807256303, 0.0090279862966930208, 0.0020523627141489842, -0.025740669124936683]}
    - {mu0: 0, rank: 1, ndensity: 8, num_ms_combs: 1, mus: [0], ns: [14], ls: [0], ms_combs: [0], ctildes: [-0.015448296283109618, -0.0070146884945439716, -0.025009900152222285, 0.0090236536986998475, -0.01236425487068247, -0.0031007885905145974, -0.009936511918548184, 0.0066103385194226918]}
    - {mu0: 0, rank: 1, ndensity: 8, num_ms_combs: 1, mus: [0], ns: [15], ls: [0], ms_combs: [0], ctildes: [0.0085625308545159672, -0.00018020562272991322, 0.075838250690616518, -0.0070465059432518237, 0.0076824419997006356, -0.0095696251539253135, -0.021851881974743196, 0.0025220082393783505]}
    - {mu0: 0, rank: 1, ndensity: 8, num_ms_combs: 1, mus: [1], ns: [1], ls: [0], ms_combs: [0], ctildes: [-0.18454161687116213, -0.26618471881717159, -0.21877277318684818, -0.22998967125654091, -0.35588720231959325, -0.45636581818696975, -0.12107503856897124, -0.1555679111212685]}
    - {mu0: 0, rank: 1, ndensity: 8, num_ms_combs: 1, mus: [1], ns: [2], ls: [0], ms_combs: [0], ctildes: [-0.041837827906558898, -0.34080595888847587, 0.013245583561473647, -0.2226674163970366, -0.45721475104480813, -0.58090704981482499, 0.036565763746006695, -0.34032556996629648]}
    - {mu0: 0, rank: 1, ndensity: 8, num_ms_combs: 1, mus: [1], ns: [3], ls: [0], ms_combs: [0], ctildes: [0.13154348024372803, -0.051249111579229366, 0.22751250893170549, -0.021228632641134147, -0.2621119517937362, -0.27763157272591071, 0.19291903076187403, -0.10863098469962776]}
    - {mu0: 0, rank: 1, ndensity: 8, num_ms_combs: 1, mus: [1], ns: [4], ls: [0], ms_combs: [0], ctildes: [-0.14023105252031967, 0.13211257449205976, 0.19135948899434971, -0.011690491121737317, -0.084392023845420008, -0.065378702799923319, 0.06623368535289649, -0.093818649439215029]}
    - {mu0: 0, rank: 1, ndensity: 8, num_ms_combs: 1, mus: [1], ns: [5], ls: [0], ms_combs: [0], ctildes: [0.14907373163803209, -0.062416255093197835, 0.10575595170745247, 0.0035538087285347793, -0.014667617630260536, -0.15245982388951634, 0.082355356628479079, -0.074422350535832141]}
    - {mu0: 0, rank: 1, ndensity: 8, num_ms_combs: 1, mus: [1], ns: [6], ls: [0], ms_combs: [0], ctildes: [0.11572334240922109, -0.20817462783826632, -0.18876308356287724, -0.003188986435799724, -0.076235202634546681, -0.36297345363134664, -0.039210515167787056, 0.032290827932704817]}
    - {mu0: 0, rank: 1, ndensity: 8, num_ms_combs: 1, mus: [1], ns: [7], ls: [0], ms_combs: [0], ctildes: [-0.28700136749594424, 0.022308084909175914, 0.065917778992872281, 0.0069080416146576652, -0.037985154795571692, -0.26563718135172193, -0.0053118398751340126, -0.065323942002807875]}
    - {mu0: 0, rank: 1, ndensity: 8, num_ms_combs: 1, mus: [1], ns: [8], ls: [0], ms_combs: [0], ctildes: [0.22497903110245754, 0.037991320860363519, 0.25294137502134945, -0.022854446868778966, -0.020109150486464528, -0.13167049178322912, 0.19060738921051626, -0.0068864399790999637]}
    - {mu0: 0, rank: 1, ndensity: 8, num_ms_combs: 1, mus: [1], ns: [9], ls: [0], ms_combs: [0], ctildes: [0.027450286981596381, -0.1423035647139366, -0.21490096997170963, -0.047603181811460324, -0.055383138341896981, -0.19676452960213917, -0.13627266725062395, -0.051675219382036411]}
    - {mu0: 0, rank: 1, ndensity: 8, num_ms_combs: 1, mus: [1], ns: [10], ls: [0], ms_combs: [0], ctildes: [-0.15116705541857603, 0.0036841338564786302, 0.12716141333132622, 0.09630719280022397, 0.033897345033616667, -0.033124293179672047, -0.0084048934326817967, 0.04819981168816579]}
    - {mu0: 0, rank: 1, ndensity: 8, num_ms_combs: 1, mus: [1], ns: [11], ls: [0], ms_combs: [0], ctildes: [0.16062582684508858, -0.047053676657460658, 0.17726788604816995, -0.13933922001332802, -0.06878901274554515, -0.019686507948184585, 0.069656584080974387, -0.071902585030315977]}
    - {mu0: 0, rank: 1, ndensity: 8, num_ms_combs: 1, mus: [1], ns: [12], ls: [0], ms_combs: [0], ctildes: [-0.062798410498659543, -0.019511446950499178, -0.21311511403193953, 0.089027221884069779, 0.033616546523839053, -0.041348725103972993, -0.087499329985779556, 0.02564925992636221]}
    - {mu0: 0, rank: 1, ndensity: 8, num_ms_combs: 1, mus: [1], ns: [13], ls: [0], ms_combs: [0], ctildes: [0.00060096428601984252, 0.004347143697634958, 0.10244908770014494, -0.041729400913085739, -0.05384252216923089, 0.0096626891008992164, 0.070627493089359158, -0.017171733066444522]}
    - {mu0: 0, rank: 1, ndensity: 8, num_ms_combs: 1, mus: [1], ns: [14], ls: [0], ms_combs: [0], ctildes: [0.015311045462201987, -0.011044903032800573, 0.0019655477842777424, 0.014634256416909687, 0.031378422227060568, -0.15945953437425847, -0.043127873276773102, 0.0044743963702313779]}
    - {mu0: 0, rank: 1, ndensity: 8, num_ms_combs: 1, mus: [1], ns: [15], ls: [0], ms_combs: [0], ctildes: [0.0039982987819357366, 0.00432740250962495, -0.014499876057223471, -0.0048675775750297795, -0.025026616930026901, 0.12448274671647117, 0.010123978611629565, -0.011507495737434963]}
    - {mu0: 0, rank: 2, ndensity: 8, num_ms_combs: 1, mus: [0, 0], ns: [1, 1], ls: [0, 0], ms_combs: [0, 0], ctildes: [-0.25208607812564904, -0.013180534696296483, 0.26793899168661223, 0.0012895471943589526, -0.023053999291178403, 0.04569528325770323, 0.099962913592721303, 0.1078926458926158]}
    - {mu0: 0, rank: 2, ndensity: 8, num_ms_combs: 2, mus: [0, 0], ns: [1, 1], ls: [1, 1], ms_combs: [0, 0, 1, -1], ctildes: [-0.058764310124887274, -0.061083699003058919, 0.034064686464126102, -0.089536206072024963, -0.180962964336287, -0.054973064339581719, 0.0091295331541222276, -0.12465510381229906, 0.11752862024977453, 0.12216739800611782, -0.068129372928252191, 0.1790724121440499, 0.36192592867257389, 0.10994612867916342, -0.018259066308244452, 0.24931020762459807]}
    - {mu0: 0, rank: 2, ndensity: 8, num_ms_combs: 3, mus: [0, 0], ns: [1, 1], ls: [2, 2], ms_combs: [0, 0, 1, -1, 2, -2], ctildes: [-0.042618516440402952, -0.12407114564144137, -0.057838511966663904, -0.068477631746496723, -0.18248132949469226, -0.1808007210261561, -0.0040866654086060428, -0.023450812605191603, 0.085237032880805919, 0.24814229128288276, 0.11567702393332782, 0.13695526349299347, 0.36496265898938457, 0.36160144205231226, 0.0081733308172120874, 0.046901625210383213, -0.085237032880805932, -0.24814229128288282, -0.11567702393332785, -0.1369552634929935, -0.36496265898938468, -0.36160144205231237, -0.0081733308172120891, -0.04690162521038322]}
    - {mu0: 0, rank: 2, ndensity: 8, num_ms_combs: 4, mus: [0, 0], ns: [1, 1], ls: [3, 3], ms_combs: [0, 0, 1, -1, 2, -2, 3, -3], ctildes: [0.021954032310131016, -0.1155615095597623, -0.11005470954003639, 0.030016312193875214, 0.00016265040268373179, -0.19113217886594161, 0.011257918397329578, -0.0039589085659435296, -0.043908064620262033, 0.2311230191195246, 0.22010941908007278, -0.060032624387750429, -0.00032530080536746357, 0.38226435773188322, -0.022515836794659155, 0.0079178171318870592, 0.043908064620262026, -0.23112301911952457, -0.22010941908007275, 0.060032624387750422, 0.00032530080536746352, -0.38226435773188316, 0.022515836794659152, -0.0079178171318870592, -0.043908064620262026, 0.23112301911952457, 0.22010941908007275, -0.060032624387750422, -0.00032530080536746352, 0.38226435773188316, -0.022515836794659152, 0.0079178171318870592]}
    - {mu0: 0, rank: 2, ndensity: 8, num_ms_combs: 5, mus: [0, 0], ns: [1, 1], ls: [4, 4], ms_combs: [0, 0, 1, -1, 2, -2, 3, -3, 4, -4], ctildes: [0.0014739496437509978, -0.11004007824238805, -0.041611835223484994, -0.016312653998919107, 0.034564897004046032, -0.069485566421872105, 0.020390206557208697, 0.01656156294371371, -0.0029478992875019939, 0.220080156484776, 0.083223670446969947, 0.032625307997838193, -0.069129794008092035, 0.13897113284374413, -0.040780413114417373, -0.033123125887427399, 0.0029478992875019939, -0.220080156484776, -0.083223670446969947, -0.032625307997838193, 0.069129794008092035, -0.13897113284374413, 0.040780413114417373, 0.033123125887427399, -0.0029478992875019939, 0.220080156484776, 0.083223670446969947, 0.032625307997838193, -0.069129794008092035, 0.13897113284374413, -0.040780413114417373, -0.033123125887427399, 0.0029478992875019948, -0.22008015648477602, -0.083223670446969961, -0.0326253079978382, 0.069129794008092049, -0.13897113284374416, 0.04078041311441738, 0.033123125887427406]}
    - {mu0: 0, rank: 2, ndensity: 8, num_ms_combs: 1, mus: [0, 0], ns: [1, 2], ls: [0, 0], ms_combs: [0, 0], ctildes: [-0.40389002276770536, 0.17290334247652672, 0.17844286179190366, 0.087682641151798954, 0.075247022784828255, 0.15989808422632296, -0.043921615396049329, 0.1529627300868252]}
    - {mu0: 0, rank: 2, ndensity: 8, num_ms_combs: 2, mus: [0, 0], ns: [1, 2], ls: [1, 1], ms_combs: [0, 0, 1, -1], ctildes: [-0.0047383498523787173, 0.086162672952737232, 0.12227693288165654, 0.043612913599971499, 0.0054416050934460438, 0.066032605466730857, 0.067125198347281978, -0.03544582371638718, 0.0094766997047574329, -0.17232534590547444, -0.24455386576331303, -0.087225827199942985, -0.010883210186892086, -0.13206521093346169, -0.13425039669456393, 0.070891647432774346]}
    - {mu0: 0, rank: 2, ndensity: 8, num_ms_combs: 3, mus: [0, 0], ns: [1, 2], ls: [2, 2], ms_combs: [0, 0, 1, -1, 2, -2], ctildes: [-0.078302375052544157, 0.023662877942632818, -0.016562003292077375, 0.023864722080680328, -0.058456370692812974, -0.042595921799578315, -0.025072194745094839, -0.026812821584194645, 0.15660475010508831, -0.047325755885265636, 0.03312400658415475, -0.047729444161360664, 0.11691274138562596, 0.085191843599156644, 0.050144389490189678, 0.053625643168389296, -0.15660475010508837, 0.04732575588526565, -0.033124006584154757, 0.047729444161360678, -0.11691274138562599, -0.085191843599156672, -0.050144389490189692, -0.05362564316838931]}
    - {mu0: 0, rank: 2, ndensity: 8, num_ms_combs: 4, mus: [0, 0], ns: [1, 2], ls: [3, 3], ms_combs: [0, 0, 1, -1, 2, -2, 3, -3], ctildes: [-0.042330478549579754, 0.046527986667675832, 0.057986974052256335, 0.01869594596699703, 0.0026363771260549148, -0.044501035184457964, 0.035472836269970595, -0.013831465729906308, 0.084660957099159509, -0.093055973335351663, -0.11597394810451267, -0.037391891933994059, -0.0052727542521098297, 0.089002070368915928, -0.07094567253994119, 0.027662931459812617, -0.084660957099159495, 0.093055973335351649, 0.11597394810451266, 0.037391891933994052, 0.0052727542521098288, -0.089002070368915914, 0.070945672539941176, -0.02766293145981261, 0.084660957099159495, -0.093055973335351649, -0.11597394810451266, -0.037391891933994052, -0.0052727542521098288, 0.089002070368915914, -0.070945672539941176, 0.02766293145981261]}
    - {mu0: 0, rank: 2, ndensity: 8, num_ms_combs: 5, mus: [0, 0], ns: [1, 2], ls: [4, 4], ms_combs: [0, 0, 1, -1, 2, -2, 3, -3, 4, -4], ctildes: [-0.084090499485804091, 0.053672800573315041, 0.056514184420906229, 0.046835685619650048, -0.017318866809736124, 0.048419372154609779, 0.025956892842253502, -0.016877816215286844, 0.1681809989716081, -0.10734560114663003, -0.1130283688418124, -0.093671371239300041, 0.034637733619472234, -0.096838744309219515, -0.051913785684506976, 0.033755632430573668, -0.1681809989716081, 0.10734560114663003, 0.1130283688418124, 0.093671371239300041, -0.034637733619472234, 0.096838744309219515, 0.051913785684506976, -0.033755632430573668, 0.1681809989716081, -0.10734560114663003, -0.1130283688418124, -0.093671371239300041, 0.034637733619472234, -0.096838744309219515, -0.051913785684506976, 0.033755632430573668, -0.16818099897160813, 0.10734560114663005, 0.11302836884181242, 0.093671371239300055, -0.034637733619472241, 0.096838744309219529, 0.051913785684506983, -0.033755632430573675]}
    - {mu0: 0, rank: 2, ndensity: 8, num_ms_combs: 1, mus: [0, 0], ns: [1, 3], ls: [0, 0], ms_combs: [0, 0], ctildes: [0.10030603690120618, 0.19805035717446354, 0.026534371635977161, 0.093682606676187233, 0.034767006069810556, -0.18062682904350832, -0.068866042143468767, 0.12211344618695208]}
    - {mu0: 0, rank: 2, ndensity: 8, num_ms_combs: 2, mus: [0, 0], ns: [1, 3], ls: [1, 1], ms_combs: [0, 0, 1, -1], ctildes: [-0.023483469427437523, 0.10185800216498064, -0.052552682426182253, 0.11162136450119542, 0.11005424356596077, -0.012605995497054207, -0.039916685169030942, 0.055795727103933289, 0.046966938854875039, -0.20371600432996123, 0.10510536485236449, -0.22324272900239078, -0.22010848713192149, 0.025211990994108407, 0.079833370338061871, -0.11159145420786656]}
    - {mu0: 0, rank: 2, ndensity: 8, num_ms_combs: 3, mus: [0, 0], ns: [1, 3], ls: [2, 2], ms_combs: [0, 0, 1, -1, 2, -2], ctildes: [-0.03368094379898573, 0.055329276937446985, -0.043789004524006095, 0.044838861438505746, 0.064490284920462923, 0.041932084666923504, -0.063791083028880077, 0.085492344570787429, 0.067361887597971459, -0.11065855387489398, 0.087578009048012204, -0.089677722877011506, -0.12898056984092585, -0.083864169333847022, 0.12758216605776018, -0.17098468914157489, -0.067361887597971487, 0.11065855387489401, -0.087578009048012218, 0.089677722877011534, 0.12898056984092587, 0.083864169333847036, -0.12758216605776021, 0.17098468914157491]}
    - {mu0: 0, rank: 2, ndensity: 8, num_ms_combs: 4, mus: [0, 0], ns: [1, 3], ls: [3, 3], ms_combs: [0, 0, 1, -1, 2, -2, 3, -3], ctildes: [-0.075392935130721372, 0.056440888747746026, 0.051753196578316479, -0.00046479867731902453, 0.024274740281492124, 0.028016758570240725, -0.042034989732582947, 0.040262099752163966, 0.15078587026144274, -0.11288177749549205, -0.10350639315663296, 0.00092959735463804907, -0.048549480562984249, -0.056033517140481451, 0.084069979465165895, -0.080524199504327931, -0.15078587026144274, 0.11288177749549204, 0.10350639315663294, -0.00092959735463804896, 0.048549480562984242, 0.056033517140481444, -0.084069979465165881, 0.080524199504327917, 0.15078587026144274, -0.11288177749549204, -0.10350639315663294, 0.00092959735463804896, -0.048549480562984242, -0.056033517140481444, 0.084069979465165881, -0.080524199504327917]}
    - {mu0: 0, rank: 2, ndensity: 8, num_ms_combs: 5, mus: [0, 0], ns: [1, 3], ls: [4, 4], ms_combs: [0, 0, 1, -1, 2, -2, 3, -3, 4, -4], ctildes: [-0.016974761596640141, 0.06511268450791953, 0.020634630879250347, -0.025632480339632755, -0.012114021317876157, 0.019876529673364673, -0.0058985734742382752, 0.044855321434574907, 0.033949523193280262, -0.13022536901583898, -0.041269261758500674, 0.051264960679265482, 0.024228042635752303, -0.039753059346729326, 0.011797146948476544, -0.089710642869149773, -0.033949523193280262, 0.13022536901583898, 0.041269261758500674, -0.051264960679265482, -0.024228042635752303, 0.039753059346729326, -0.011797146948476544, 0.089710642869149773, 0.033949523193280262, -0.13022536901583898, -0.041269261758500674, 0.051264960679265482, 0.024228042635752303, -0.039753059346729326, 0.011797146948476544, -0.089710642869149773, -0.033949523193280269, 0.130225369015839, 0.04126926175850068, -0.051264960679265489, -0.024228042635752307, 0.039753059346729333, -0.011797146948476545, 0.089710642869149787]}
    - {mu0: 0, rank: 2, ndensity: 8, num_ms_combs: 1, mus: [0, 0], ns: [2, 2], ls: [0, 0], ms_combs: [0, 0], ctildes: [-0.31787331039394162, 0.23186165762828037, 0.14755092005297801, 0.085659707665631746, 0.01709746621258932, 0.15144078909979497, 0.021097910655222606, 0.3749572000674356]}
    - {mu0: 0, rank: 2, ndensity: 8, num_ms_combs: 2, mus: [0, 0], ns: [2, 2], ls: [1, 1], ms_combs: [0, 0, 1, -1], ctildes: [-0.060536972067806914, 0.050352781111739978, 0.054159549732597317, 0.11082647029726241, -0.032696007360965486, -0.018128367042558644, 0.0096111053671104011, -0.070773382750662847, 0.1210739441356138, -0.10070556222347994, -0.10831909946519462, -0.22165294059452476, 0.065392014721930958, 0.03625673408511728, -0.019222210734220799, 0.14154676550132567]}
    - {mu0: 0, rank: 2, ndensity: 8, num_ms_combs: 3, mus: [0, 0], ns: [2, 2], ls: [2, 2], ms_combs: [0, 0, 1, -1, 2, -2], ctildes: [0.012580873485285455, -0.015891888744789816, 0.0502845407498183, -0.012718353221872121, -0.087163436553400045, -0.082716187707347941, 0.054825441029145452, -0.010905941490104997, -0.025161746970570914, 0.031783777489579633, -0.10056908149963661, 0.025436706443744246, 0.17432687310680009, 0.16543237541469591, -0.10965088205829092, 0.021811882980209998, 0.025161746970570921, -0.031783777489579647, 0.10056908149963663, -0.025436706443744253, -0.17432687310680015, -0.16543237541469596, 0.10965088205829095, -0.021811882980210001]}
    - {mu0: 0, rank: 2, ndensity: 8, num_ms_combs: 4, mus: [0, 0], ns: [2, 2], ls: [3, 3], ms_combs: [0, 0, 1, -1, 2, -2, 3, -3], ctildes: [-0.035856912384247999, -0.013989394933284289, 0.025049058191560093, -0.007682249670433911, -0.013589297088940014, -0.11463553785398921, 0.034541604069703143, 0.014498427813782026, 0.071713824768495998, 0.027978789866568578, -0.050098116383120186, 0.015364499340867822, 0.027178594177880027, 0.22927107570797842, -0.069083208139406285, -0.028996855627564051, -0.071713824768495985, -0.027978789866568574, 0.05009811638312018, -0.01536449934086782, -0.027178594177880024, -0.22927107570797839, 0.069083208139406271, 0.028996855627564048, 0.071713824768495985, 0.027978789866568574, -0.05009811638312018, 0.01536449934086782, 0.027178594177880024, 0.22927107570797839, -0.069083208139406271, -0.028996855627564048]}
    - {mu0: 0, rank: 2, ndensity: 8, num_ms_combs: 5, mus: [0, 0], ns: [2, 2], ls: [4, 4], ms_combs: [0, 0, 1, -1, 2, -2, 3, -3, 4, -4], ctildes: [-0.0079031849473145191, -0.0067236555046389776, -0.023913565218305521, -0.010005313316443536, 0.0030743993840808416, -0.0015760495987160038, 0.038696568722236882, 0.0040206252266512333, 0.015806369894629031, 0.01344731100927795, 0.047827130436611021, 0.020010626632887062, -0.0061487987681616806, 0.0031520991974320059, -0.077393137444473722, -0.0080412504533024613, -0.015806369894629031, -0.01344731100927795, -0.047827130436611021, -0.020010626632887062, 0.0061487987681616806, -0.0031520991974320059, 0.077393137444473722, 0.0080412504533024613, 0.015806369894629031, 0.01344731100927795, 0.047827130436611021, 0.020010626632887062, -0.0061487987681616806, 0.0031520991974320059, -0.077393137444473722, -0.0080412504533024613, -0.015806369894629031, -0.013447311009277952, -0.047827130436611028, -0.020010626632887066, 0.0061487987681616814, -0.0031520991974320067, 0.077393137444473736, 0.0080412504533024631]}
    - {mu0: 0, rank: 2, ndensity: 8, num_ms_combs: 1, mus: [0, 0], ns: [2, 3], ls: [0, 0], ms_combs: [0, 0], ctildes: [-0.3006528688576966, 0.10263409137263893, -0.2120652099940607, -0.054667537375406909, -0.14840180677024023, -0.22561422563893202, -0.26681053577668756, -0.079798446539915788]}
    - {mu0: 0, rank: 2, ndensity: 8, num_ms_combs: 2, mus: [0, 0], ns: [2, 3], ls: [1, 1], ms_combs: [0, 0, 1, -1], ctildes: [-0.1241819039725288, 0.088269524026175675, 0.028942388350762845, 0.025480539281718801, -0.028353282118493219, -0.039954206792249494, -0.049903986415582427, 0.020135067069184689, 0.24836380794505755, -0.17653904805235132, -0.057884776701525684, -0.050961078563437595, 0.056706564236986431, 0.079908413584498975, 0.099807972831164826, -0.040270134138369371]}
    - {mu0: 0, rank: 2, ndensity: 8, num_ms_combs: 3, mus: [0, 0], ns: [2, 3], ls: [2, 2], ms_combs: [0, 0, 1, -1, 2, -2], ctildes: [-0.077753096574171524, 0.054131795973914723, 0.017536045004479729, 0.027261834222916875, -0.055654190708455176, 0.010228855918135438, -0.030629002649557643, -0.034692624784693621, 0.15550619314834305, -0.10826359194782946, -0.035072090008959465, -0.054523668445833756, 0.11130838141691037, -0.020457711836270875, 0.061258005299115292, 0.069385249569387256, -0.1555061931483431, 0.10826359194782949, 0.035072090008959472, 0.05452366844583377, -0.11130838141691039, 0.020457711836270882, -0.061258005299115306, -0.06938524956938727]}
    - {mu0: 0, rank: 2, ndensity: 8, num_ms_combs: 4, mus: [0, 0], ns: [2, 3], ls: [3, 3], ms_combs: [0, 0, 1, -1, 2, -2, 3, -3], ctildes: [-0.05222514345498605, 0.029317986670474496, 0.027702069949928472, 0.039861673519874061, 0.011132572361022604, -0.0090006910998109962, -0.00063684249123226232, -0.01815511872248312, 0.1044502869099721, -0.058635973340948992, -0.055404139899856944, -0.079723347039748121, -0.022265144722045209, 0.018001382199621992, 0.0012736849824645246, 0.03631023744496624, -0.10445028690997209, 0.058635973340948985, 0.055404139899856937, 0.079723347039748108, 0.022265144722045205, -0.018001382199621989, -0.0012736849824645244, -0.036310237444966233, 0.10445028690997209, -0.058635973340948985, -0.055404139899856937, -0.079723347039748108, -0.022265144722045205, 0.018001382199621989, 0.0012736849824645244, 0.036310237444966233]}
    - {mu0: 0, rank: 2, ndensity: 8, num_ms_combs: 5, mus: [0, 0], ns: [2, 3], ls: [4, 4], ms_combs: [0, 0, 1, -1, 2, -2, 3, -3, 4, -4], ctildes: [-0.067430319516815704, 0.035358033459744337, -8.1091780635174422e-05, 0.032383520213371229, 0.016358853220899684, 0.0139086154203833, -0.023740968673567585, 0.0053899859620589689, 0.13486063903363132, -0.070716066919488646, 0.00016218356127034876, -0.064767040426742417, -0.032717706441799353, -0.027817230840766587, 0.047481937347135142, -0.010779971924117933, -0.13486063903363132, 0.070716066919488646, -0.00016218356127034876, 0.064767040426742417, 0.032717706441799353, 0.027817230840766587, -0.047481937347135142, 0.010779971924117933, 0.13486063903363132, -0.070716066919488646, 0.00016218356127034876, -0.064767040426742417, -0.032717706441799353, -0.027817230840766587, 0.047481937347135142, -0.010779971924117933, -0.13486063903363135, 0.070716066919488646, -0.00016218356127034879, 0.064767040426742431, 0.03271770644179936, 0.027817230840766594, -0.047481937347135156, 0.010779971924117934]}
    - {mu0: 0, rank: 2, ndensity: 8, num_ms_combs: 1, mus: [0, 0], ns: [3, 3], ls: [0, 0], ms_combs: [0, 0], ctildes: [0.03455730679783367, -0.13041976141638326, -0.12659239592369795, 0.019376491547343978, 0.017357989227733427, -0.47830892613223985, 0.12988994182726996, 0.004394291245248887]}
    - {mu0: 0, rank: 2, ndensity: 8, num_ms_combs: 2, mus: [0, 0], ns: [3, 3], ls: [1, 1], ms_combs: [0, 0, 1, -1], ctildes: [-0.02687936385346552, -0.029008659549425751, -0.0059753900575116583, 0.009644277874359548, 0.054346461071981482, -0.066788932996271325, -0.023672097037421208, 0.05861706681070656, 0.053758727706931034, 0.058017319098851494, 0.011950780115023315, -0.019288555748719093, -0.10869292214396295, 0.13357786599254262, 0.047344194074842409, -0.11723413362141311]}
    - {mu0: 0, rank: 2, ndensity: 8, num_ms_combs: 3, mus: [0, 0], ns: [3, 3], ls: [2, 2], ms_combs: [0, 0, 1, -1, 2, -2], ctildes: [-0.0031862084009780865, -0.016847106204595241, 0.026548246568535681, -0.012013060997113674, -0.022016485857178761, -0.045447204949602062, 0.023787515987509021, 0.0095454084882249744, 0.0063724168019561739, 0.033694212409190488, -0.05309649313707137, 0.024026121994227351, 0.044032971714357529, 0.090894409899204137, -0.047575031975018049, -0.019090816976449952, -0.0063724168019561756, -0.033694212409190495, 0.053096493137071384, -0.024026121994227354, -0.044032971714357536, -0.090894409899204165, 0.047575031975018056, 0.019090816976449956]}
    - {mu0: 0, rank: 2, ndensity: 8, num_ms_combs: 4, mus: [0, 0], ns: [3, 3], ls: [3, 3], ms_combs: [0, 0, 1, -1, 2, -2, 3, -3], ctildes: [0.007702523012129584, -0.0077045685486170955, -0.03250915928765425, 0.00081334423775734606, -0.011008912310385708, -0.072097404580876545, 0.016063086853552722, -0.0013539743161334222, -0.015405046024259168, 0.015409137097234191, 0.065018318575308501, -0.0016266884755146921, 0.022017824620771415, 0.14419480916175309, -0.032126173707105445, 0.0027079486322668443, 0.015405046024259164, -0.015409137097234188, -0.065018318575308487, 0.0016266884755146919, -0.022017824620771415, -0.14419480916175306, 0.032126173707105438, -0.0027079486322668439, -0.015405046024259164, 0.015409137097234188, 0.065018318575308487, -0.0016266884755146919, 0.022017824620771415, 0.14419480916175306, -0.032126173707105438, 0.0027079486322668439]}
    - {mu0: 0, rank: 2, ndensity: 8, num_ms_combs: 5, mus: [0, 0], ns: [3, 3], ls: [4, 4], ms_combs: [0, 0, 1, -1, 2, -2, 3, -3, 4, -4], ctildes: [0.026399897726291342, -0.036405209939075978, -0.031741699196046518, 0.0069875523553043365, -0.019200744140114048, -0.011973551539301, -0.01433123419171348, 0.014682090461330718, -0.052799795452582655, 0.072810419878151927, 0.063483398392093007, -0.013975104710608666, 0.038401488280228074, 0.023947103078601987, 0.028662468383426946, -0.02936418092266142, 0.052799795452582655, -0.072810419878151927, -0.063483398392093007, 0.013975104710608666, -0.038401488280228074, -0.023947103078601987, -0.028662468383426946, 0.02936418092266142, -0.052799795452582655, 0.072810419878151927, 0.063483398392093007, -0.013975104710608666, 0.038401488280228074, 0.023947103078601987, 0.028662468383426946, -0.02936418092266142, 0.052799795452582662, -0.072810419878151927, -0.063483398392093021, 0.013975104710608668, -0.038401488280228081, -0.02394710307860199, -0.028662468383426953, 0.029364180922661427]}
    - {mu0: 0, rank: 2, ndensity: 8, num_ms_combs: 1, mus: [0, 1], ns: [1, 1], ls: [0, 0], ms_combs: [0, 0], ctildes: [0.084441026408039022, 0.53937515167857697, 0.5451870442609732, 0.41258108420205375, 0.37925091054089316, 0.33624661308690773, 0.34985270767158305, 0.12480055999678817]}
    - {mu0: 0, rank: 2, ndensity: 8, num_ms_combs: 2, mus: [0, 1], ns: [1, 1], ls: [1, 1], ms_combs: [0, 0, 1, -1], ctildes: [0.031666983002344079, 0.24938641747050824, 0.20433860526416348, 0.23157872429102863, 0.34053350357574513, 0.11783965141731839, 0.11295999978408215, 0.074915636868522623, -0.063333966004688144, -0.49877283494101637, -0.4086772105283269, -0.46315744858205715, -0.68106700715149016, -0.23567930283463673, -0.22591999956816425, -0.14983127373704522]}
    - {mu0: 0, rank: 2, ndensity: 8, num_ms_combs: 3, mus: [0, 1], ns: [1, 1], ls: [2, 2], ms_combs: [0, 0, 1, -1, 2, -2], ctildes: [-0.061294276133480388, 0.12316588525769526, 0.057134858722592684, 0.035594384772305067, 0.14030933617296448, 0.074425585670518074, -0.02098391338816466, 0.077980366615377064, 0.12258855226696079, -0.24633177051539054, -0.11426971744518538, -0.071188769544610134, -0.28061867234592902, -0.14885117134103615, 0.041967826776329327, -0.15596073323075416, -0.12258855226696083, 0.2463317705153906, 0.11426971744518541, 0.071188769544610161, 0.28061867234592908, 0.1488511713410362, -0.041967826776329334, 0.15596073323075421]}
    - {mu0: 0, rank: 2, ndensity: 8, num_ms_combs: 4, mus: [0, 1], ns: [1, 1], ls: [3, 3], ms_combs: [0, 0, 1, -1, 2, -2, 3, -3], ctildes: [0.051376148948640676, -0.030526814036740471, -0.063766110178716584, -0.033244384226825928, -0.039847319176005667, -0.066130262474704257, -0.025876255097119896, -0.014055575393341013, -0.10275229789728135, 0.061053628073480942, 0.12753222035743317, 0.066488768453651856, 0.079694638352011335, 0.13226052494940851, 0.051752510194239792, 0.028111150786682026, 0.10275229789728134, -0.061053628073480935, -0.12753222035743314, -0.066488768453651842, -0.079694638352011321, -0.13226052494940849, -0.051752510194239786, -0.028111150786682023, -0.10275229789728134, 0.061053628073480935, 0.12753222035743314, 0.066488768453651842, 0.079694638352011321, 0.13226052494940849, 0.051752510194239786, 0.028111150786682023]}
    - {mu0: 0, rank: 2, ndensity: 8, num_ms_combs: 5, mus: [0, 1], ns: [1, 1], ls: [4, 4], ms_combs: [0, 0, 1, -1, 2, -2, 3, -3, 4, -4], ctildes: [0.036221442486524973, -0.02228873472107841, -0.029380192181338183, -0.012377920740118809, -0.012325598890402013, -0.025263941354707619, 0.039871690460492021, -0.025064054759618756, -0.072442884973049917, 0.044577469442156799, 0.058760384362676339, 0.024755841480237604, 0.024651197780804011, 0.050527882709415217, -0.079743380920984, 0.05012810951923749, 0.072442884973049917, -0.044577469442156799, -0.058760384362676339, -0.024755841480237604, -0.024651197780804011, -0.050527882709415217, 0.079743380920984, -0.05012810951923749, -0.072442884973049917, 0.044577469442156799, 0.058760384362676339, 0.024755841480237604, 0.024651197780804011, 0.050527882709415217, -0.079743380920984, 0.05012810951923749, 0.072442884973049931, -0.044577469442156806, -0.058760384362676346, -0.024755841480237607, -0.024651197780804018, -0.050527882709415224, 0.079743380920984014, -0.050128109519237497]}
    - {mu0: 0, rank: 2, ndensity: 8, num_ms_combs: 1, mus: [0, 1], ns: [1, 2], ls: [0, 0], ms_combs: [0, 0], ctildes: [0.20854421122376929, 0.094847609854996281, 0.24229075044339837, 0.0077122497545734437, 0.16518203618497213, 0.056634849768102173, 0.24788938278874301, -0.14058783653280177]}
    - {mu0: 0, rank: 2, ndensity: 8, num_ms_combs: 2, mus: [0, 1], ns: [1, 2], ls: [1, 1], ms_combs: [0, 0, 1, -1], ctildes: [-0.027333359716879831, 0.007744840265733262, -0.024885017807369559, -0.13692512270376411, -0.0084262078033212652, -0.0035215937790932035, -0.033106631301674183, -0.025938326152654411, 0.054666719433759649, -0.015489680531466521, 0.049770035614739104, 0.27385024540752817, 0.016852415606642527, 0.0070431875581864053, 0.066213262603348352, 0.051876652305308815]}
    - {mu0: 0, rank: 2, ndensity: 8, num_ms_combs: 3, mus: [0, 1], ns: [1, 2], ls: [2, 2], ms_combs: [0, 0, 1, -1, 2, -2], ctildes: [-0.029685427911769105, 0.011899830360316947, -0.0026345726123127603, -0.046730312806326675, 0.028205204555353195, -0.0049011790996011132, -0.028976027954840236, 0.096080417909166424, 0.059370855823538217, -0.023799660720633897, 0.0052691452246255216, 0.093460625612653364, -0.056410409110706397, 0.0098023581992022282, 0.057952055909680479, -0.19216083581833288, -0.059370855823538231, 0.023799660720633904, -0.0052691452246255224, -0.093460625612653378, 0.056410409110706411, -0.00980235819920223, -0.057952055909680493, 0.1921608358183329]}
    - {mu0: 0, rank: 2, ndensity: 8, num_ms_combs: 4, mus: [0, 1], ns: [1, 2], ls: [3, 3], ms_combs: [0, 0, 1, -1, 2, -2, 3, -3], ctildes: [-0.015703060856030602, 0.052808090554546529, 0.093752711642683742, 0.027384983104023083, -0.0038964135813700333, 0.026640653468342906, 0.081607900563546748, -0.018428741947956725, 0.031406121712061204, -0.10561618110909306, -0.18750542328536748, -0.054769966208046167, 0.0077928271627400666, -0.053281306936685813, -0.1632158011270935, 0.036857483895913451, -0.031406121712061197, 0.10561618110909304, 0.18750542328536746, 0.05476996620804616, -0.0077928271627400658, 0.053281306936685806, 0.16321580112709347, -0.036857483895913451, 0.031406121712061197, -0.10561618110909304, -0.18750542328536746, -0.05476996620804616, 0.0077928271627400658, -0.053281306936685806, -0.16321580112709347, 0.036857483895913451]}
    - {mu0: 0, rank: 2, ndensity: 8, num_ms_combs: 5, mus: [0, 1], ns: [1, 2], ls: [4, 4], ms_combs: [0, 0, 1, -1, 2, -2, 3, -3, 4, -4], ctildes: [-0.026056946176430975, 0.018475028018281509, 0.023705198639680337, -0.0138331292594225, 0.015959785270207531, 0.04013153441568585, -0.019182166185387893, 0.012818890700938087, 0.052113892352861929, -0.036950056036562998, -0.047410397279360646, 0.027666258518844987, -0.03191957054041504, -0.080263068831371659, 0.038364332370775765, -0.025637781401876159, -0.052113892352861929, 0.036950056036562998, 0.047410397279360646, -0.027666258518844987, 0.03191957054041504, 0.080263068831371659, -0.038364332370775765, 0.025637781401876159, 0.052113892352861929, -0.036950056036562998, -0.047410397279360646, 0.027666258518844987, -0.03191957054041504, -0.080263068831371659, 0.038364332370775765, -0.025637781401876159, -0.052113892352861936, 0.036950056036563005, 0.047410397279360653, -0.027666258518844994, 0.031919570540415047, 0.080263068831371673, -0.038364332370775772, 0.025637781401876163]}
    - {mu0: 0, rank: 2, ndensity: 8, num_ms_combs: 1, mus: [0, 1], ns: [1, 3], ls: [0, 0], ms_combs: [0, 0], ctildes: [-0.026405329279165324, -0.038618221041591433, 0.11244847750018666, -0.072594774055561792, 0.056677551125523591, -0.1700927295391062, 0.17453537832248334, -0.11066233021407663]}
    - {mu0: 0, rank: 2, ndensity: 8, num_ms_combs: 2, mus: [0, 1], ns: [1, 3], ls: [1, 1], ms_combs: [0, 0, 1, -1], ctildes: [0.21558555140776048, -0.050364132606133219, 0.011260886455391521, -0.044725183441172635, -0.016184392560920788, -0.034544323647330573, 0.09556077157404104, -0.040899994648018932, -0.4311711028155209, 0.10072826521226642, -0.022521772910783038, 0.089450366882345242, 0.032368785121841569, 0.069088647294661132, -0.19112154314808205, 0.081799989296037851]}
    - {mu0: 0, rank: 2, ndensity: 8, num_ms_combs: 3, mus: [0, 1], ns: [1, 3], ls: [2, 2], ms_combs: [0, 0, 1, -1, 2, -2], ctildes: [0.12848149781213786, -0.069814014268228461, -0.0033545105613081885, -0.035205707618120766, -0.06248695926857839, -0.061374590256097726, 0.055081484426242291, -0.058278422663799977, -0.25696299562427577, 0.13962802853645692, 0.0067090211226163779, 0.070411415236241545, 0.12497391853715681, 0.12274918051219547, -0.1101629688524846, 0.11655684532759997, 0.25696299562427583, -0.13962802853645695, -0.0067090211226163796, -0.070411415236241559, -0.12497391853715684, -0.12274918051219551, 0.11016296885248462, -0.11655684532759999]}
    - {mu0: 0, rank: 2, ndensity: 8, num_ms_combs: 4, mus: [0, 1], ns: [1, 3], ls: [3, 3], ms_combs: [0, 0, 1, -1, 2, -2, 3, -3], ctildes: [0.021746361840950287, -0.058996640210911604, 0.031285574258597217, -0.00019495198169733829, -0.016202941479203696, 0.031023683979072469, 0.0061541017720444348, -0.0025262606322544439, -0.043492723681900575, 0.11799328042182321, -0.062571148517194433, 0.00038990396339467657, 0.032405882958407392, -0.062047367958144937, -0.01230820354408887, 0.0050525212645088878, 0.043492723681900568, -0.11799328042182319, 0.062571148517194419, -0.00038990396339467652, -0.032405882958407385, 0.062047367958144931, 0.012308203544088868, -0.0050525212645088869, -0.043492723681900568, 0.11799328042182319, -0.062571148517194419, 0.00038990396339467652, 0.032405882958407385, -0.062047367958144931, -0.012308203544088868, 0.0050525212645088869]}
    - {mu0: 0, rank: 2, ndensity: 8, num_ms_combs: 5, mus: [0, 1], ns: [1, 3], ls: [4, 4], ms_combs: [0, 0, 1, -1, 2, -2, 3, -3, 4, -4], ctildes: [0.028550279632528878, 0.016946320207753902, 0.05901458235327546, -0.0056717380193450411, -0.011430315652159261, 0.063002180889531204, -0.0037753538009083973, -0.012259805309956727, -0.057100559265057728, -0.03389264041550779, -0.11802916470655087, 0.011343476038690077, 0.022860631304318511, -0.12600436177906232, 0.0075507076018167902, 0.024519610619913441, 0.057100559265057728, 0.03389264041550779, 0.11802916470655087, -0.011343476038690077, -0.022860631304318511, 0.12600436177906232, -0.0075507076018167902, -0.024519610619913441, -0.057100559265057728, -0.03389264041550779, -0.11802916470655087, 0.011343476038690077, 0.022860631304318511, -0.12600436177906232, 0.0075507076018167902, 0.024519610619913441, 0.057100559265057735, 0.033892640415507796, 0.11802916470655089, -0.011343476038690079, -0.022860631304318514, 0.12600436177906235, -0.007550707601816792, -0.024519610619913444]}
    - {mu0: 0, rank: 2, ndensity: 8, num_ms_combs: 1, mus: [0, 1], ns: [2, 1], ls: [0, 0], ms_combs: [0, 0], ctildes: [-0.36482731629795662, 0.17798645855741188, 0.078126123187045926, 0.056144894483596115, 0.039304911321949444, 0.14224081397426175, -0.089106233120793243, -0.39738657253034571]}
    - {mu0: 0, rank: 2, ndensity: 8, num_ms_combs: 2, mus: [0, 1], ns: [2, 1], ls: [1, 1], ms_combs: [0, 0, 1, -1], ctildes: [-0.029214194069915267, 0.096635660347238958, 0.089459794663068207, 0.05182184174500068, 0.064450416605882091, 0.061417485264686954, 0.018257925707491601, 0.097847744703906531, 0.05842838813983052, -0.19327132069447789, -0.17891958932613639, -0.10364368349000133, -0.12890083321176415, -0.12283497052937388, -0.036515851414983196, -0.19569548940781301]}
    - {mu0: 0, rank: 2, ndensity: 8, num_ms_combs: 3, mus: [0, 1], ns: [2, 1], ls: [2, 2], ms_combs: [0, 0, 1, -1, 2, -2], ctildes: [-0.017682629218460148, 0.045862710026815877, 0.055863519282519786, 0.0033406916415830187, 0.12769590986550253, 0.014147436697869895, 0.014971307614579899, 0.078236786776179151, 0.035365258436920295, -0.091725420053631768, -0.11172703856503959, -0.0066813832831660383, -0.25539181973100505, -0.028294873395739793, -0.029942615229159801, -0.15647357355235833, -0.035365258436920302, 0.091725420053631795, 0.11172703856503961, 0.00668138328316604, 0.25539181973100517, 0.0282948733957398, 0.029942615229159808, 0.15647357355235836]}
    - {mu0: 0, rank: 2, ndensity: 8, num_ms_combs: 4, mus: [0, 1], ns: [2, 1], ls: [3, 3], ms_combs: [0, 0, 1, -1, 2, -2, 3, -3], ctildes: [0.095759902062805449, -0.018076001772517686, 0.0058004449931695042, -0.013922997661250066, 0.022226554487864762, -0.020827081160181254, 0.04221630900873409, -0.0068006446228360612, -0.1915198041256109, 0.036152003545035373, -0.011600889986339008, 0.027845995322500133, -0.044453108975729523, 0.041654162320362509, -0.084432618017468181, 0.013601289245672122, 0.19151980412561087, -0.036152003545035373, 0.011600889986339007, -0.027845995322500126, 0.044453108975729516, -0.041654162320362502, 0.084432618017468167, -0.013601289245672119, -0.19151980412561087, 0.036152003545035373, -0.011600889986339007, 0.027845995322500126, -0.044453108975729516, 0.041654162320362502, -0.084432618017468167, 0.013601289245672119]}
    - {mu0: 0, rank: 2, ndensity: 8, num_ms_combs: 5, mus: [0, 1], ns: [2, 1], ls: [4, 4], ms_combs: [0, 0, 1, -1, 2, -2, 3, -3, 4, -4], ctildes: [0.057815802745038371, -0.034645880511688314, -0.028435401635253647, -0.033395264981130421, -0.018451366170379849, 0.0076233911609299857, 0.067274358790061578, -0.017621531285983042, -0.11563160549007669, 0.069291761023376586, 0.056870803270507267, 0.066790529962260814, 0.036902732340759685, -0.015246782321859964, -0.1345487175801231, 0.035243062571966063, 0.11563160549007669, -0.069291761023376586, -0.056870803270507267, -0.066790529962260814, -0.036902732340759685, 0.015246782321859964, 0.1345487175801231, -0.035243062571966063, -0.11563160549007669, 0.069291761023376586, 0.056870803270507267, 0.066790529962260814, 0.036902732340759685, -0.015246782321859964, -0.1345487175801231, 0.035243062571966063, 0.1156316054900767, -0.0692917610233766, -0.056870803270507281, -0.066790529962260814, -0.036902732340759692, 0.015246782321859966, 0.1345487175801231, -0.03524306257196607]}
    - {mu0: 0, rank: 2, ndensity: 8, num_ms_combs: 1, mus: [0, 1], ns: [2, 2], ls: [0, 0], ms_combs: [0, 0], ctildes: [0.14336143356921202, 0.090425288146593563, 0.14622247970520627, 0.038225074797935764, 0.1147083631765423, 0.049577622123748333, 0.16390377360471353, -0.046185939257286597]}
    - {mu0: 0, rank: 2, ndensity: 8, num_ms_combs: 2, mus: [0, 1], ns: [2, 2], ls: [1, 1], ms_combs: [0, 0, 1, -1], ctildes: [0.039919742301108431, 0.016781042064131127, 0.030762212194327399, -0.071353483808064319, 0.0011224114762972172, -0.0085375154785332537, 0.033708350080518458, 0.1235463591007683, -0.079839484602216848, -0.033562084128262247, -0.061524424388654783, 0.14270696761612861, -0.0022448229525944339, 0.017075030957066504, -0.067416700161036902, -0.24709271820153655]}
    - {mu0: 0, rank: 2, ndensity: 8, num_ms_combs: 3, mus: [0, 1], ns: [2, 2], ls: [2, 2], ms_combs: [0, 0, 1, -1, 2, -2], ctildes: [-0.015731719603109196, -0.0003871795016796178, 0.001952549546843271, -0.032886443216254398, 0.014845931106867792, -0.0092891530966228084, -0.016482773482673796, 0.10119093347343118, 0.031463439206218392, 0.0007743590033592356, -0.0039050990936865424, 0.065772886432508809, -0.029691862213735588, 0.01857830619324562, 0.032965546965347599, -0.20238186694686239, -0.031463439206218399, -0.00077435900335923581, 0.0039050990936865437, -0.065772886432508823, 0.029691862213735598, -0.018578306193245624, -0.032965546965347606, 0.20238186694686242]}
    - {mu0: 0, rank: 2, ndensity: 8, num_ms_combs: 4, mus: [0, 1], ns: [2, 2], ls: [3, 3], ms_combs: [0, 0, 1, -1, 2, -2, 3, -3], ctildes: [0.0277686328281204, -0.036617181371874731, 0.036089874537213858, -0.073968133867341759, -0.023261906182312785, -0.024120572126115875, 0.032826738574245937, 0.002674167299165624, -0.0555372656562408, 0.073234362743749462, -0.072179749074427715, 0.14793626773468352, 0.046523812364625571, 0.048241144252231749, -0.065653477148491873, -0.005348334598331248, 0.055537265656240793, -0.073234362743749448, 0.072179749074427701, -0.14793626773468349, -0.046523812364625564, -0.048241144252231742, 0.065653477148491873, 0.0053483345983312471, -0.055537265656240793, 0.073234362743749448, -0.072179749074427701, 0.14793626773468349, 0.046523812364625564, 0.048241144252231742, -0.065653477148491873, -0.0053483345983312471]}
    - {mu0: 0, rank: 2, ndensity: 8, num_ms_combs: 5, mus: [0, 1], ns: [2, 2], ls: [4, 4], ms_combs: [0, 0, 1, -1, 2, -2, 3, -3, 4, -4], ctildes: [0.0074567781922219942, -0.014217075739297841, 0.019662604033326411, 0.014246497597096574, -0.015178045966066797, 0.02669788861894009, -0.011490043126677006, 6.4694595071649428e-05, -0.014913556384443982, 0.028434151478595668, -0.039325208066652802, -0.028492995194193134, 0.030356091932133577, -0.053395777237880152, 0.022980086253354001, -0.0001293891901432988, 0.014913556384443982, -0.028434151478595668, 0.039325208066652802, 0.028492995194193134, -0.030356091932133577, 0.053395777237880152, -0.022980086253354001, 0.0001293891901432988, -0.014913556384443982, 0.028434151478595668, -0.039325208066652802, -0.028492995194193134, 0.030356091932133577, -0.053395777237880152, 0.022980086253354001, -0.0001293891901432988, 0.014913556384443985, -0.028434151478595671, 0.039325208066652809, 0.028492995194193141, -0.030356091932133584, 0.053395777237880165, -0.022980086253354005, 0.00012938919014329883]}
    - {mu0: 0, rank: 2, ndensity: 8, num_ms_combs: 1, mus: [0, 1], ns: [2, 3], ls: [0, 0], ms_combs: [0, 0], ctildes: [0.066849336432535406, 0.020159713458424121, 0.11753532625431015, 0.044020391046684697, 0.032237650775934892, -0.090769822086896476, 0.19375160245119358, -0.058336894006005287]}
    - {mu0: 0, rank: 2, ndensity: 8, num_ms_combs: 2, mus: [0, 1], ns: [2, 3], ls: [1, 1], ms_combs: [0, 0, 1, -1], ctildes: [0.17414496152334694, -0.1068777664952045, 0.024647483512658348, -0.14725276490174632, 0.05061907727425214, -0.0369503852440735, 0.066339794598997054, -0.082467335805326225, -0.34828992304669382, 0.21375553299040898, -0.049294967025316688, 0.29450552980349259, -0.10123815454850427, 0.073900770488146986, -0.13267958919799408, 0.16493467161065242]}
    - {mu0: 0, rank: 2, ndensity: 8, num_ms_combs: 3, mus: [0, 1], ns: [2, 3], ls: [2, 2], ms_combs: [0, 0, 1, -1, 2, -2], ctildes: [0.1659585792135698, -0.084097193517887719, 0.0027697601063626253, -0.10771368188414615, 0.042457885799412176, -0.054391501168281516, 0.040239995624356879, -0.0504096910659372, -0.33191715842713965, 0.16819438703577547, -0.0055395202127252515, 0.21542736376829233, -0.084915771598824366, 0.10878300233656304, -0.080479991248713773, 0.10081938213187441, 0.33191715842713976, -0.16819438703577549, 0.0055395202127252524, -0.21542736376829238, 0.08491577159882438, -0.10878300233656307, 0.080479991248713786, -0.10081938213187443]}
    - {mu0: 0, rank: 2, ndensity: 8, num_ms_combs: 4, mus: [0, 1], ns: [2, 3], ls: [3, 3], ms_combs: [0, 0, 1, -1, 2, -2, 3, -3], ctildes: [0.063119854032300068, -0.078432596754346967, -0.0087667042440993086, -0.054598660458828212, 0.0090338644273773357, 0.0046920430506633389, -0.015806334367693593, -0.034882889952305193, -0.12623970806460014, 0.15686519350869393, 0.017533408488198617, 0.10919732091765642, -0.018067728854754671, -0.0093840861013266778, 0.031612668735387185, 0.069765779904610387, 0.12623970806460011, -0.15686519350869391, -0.017533408488198614, -0.10919732091765641, 0.018067728854754671, 0.009384086101326676, -0.031612668735387178, -0.069765779904610373, -0.12623970806460011, 0.15686519350869391, 0.017533408488198614, 0.10919732091765641, -0.018067728854754671, -0.009384086101326676, 0.031612668735387178, 0.069765779904610373]}
    - {mu0: 0, rank: 2, ndensity: 8, num_ms_combs: 5, mus: [0, 1], ns: [2, 3], ls: [4, 4], ms_combs: [0, 0, 1, -1, 2, -2, 3, -3, 4, -4], ctildes: [0.053926691644159939, -0.026282897522606565, 0.052238608596426019, -0.027103159542079043, -0.01432946730558023, 0.0086902033115207906, -0.014792313947611279, -0.025127875808350148, -0.10785338328831984, 0.05256579504521311, -0.10447721719285198, 0.054206319084158058, 0.028658934611160446, -0.017380406623041574, 0.029584627895222544, 0.050255751616700269, 0.10785338328831984, -0.05256579504521311, 0.10447721719285198, -0.054206319084158058, -0.028658934611160446, 0.017380406623041574, -0.029584627895222544, -0.050255751616700269, -0.10785338328831984, 0.05256579504521311, -0.10447721719285198, 0.054206319084158058, 0.028658934611160446, -0.017380406623041574, 0.029584627895222544, 0.050255751616700269, 0.10785338328831985, -0.052565795045213116, 0.104477217192852, -0.054206319084158072, -0.028658934611160453, 0.017380406623041578, -0.029584627895222551, -0.050255751616700275]}
    - {mu0: 0, rank: 2, ndensity: 8, num_ms_combs: 1, mus: [0, 1], ns: [3, 1], ls: [0, 0], ms_combs: [0, 0], ctildes: [0.5097958021156288, -0.70984788778766117, -0.24943921418400095, 0.096099221121903042, -0.0091924145362028385, -0.25875685330493464, 0.019565135258237529, -0.078692136208600591]}
    - {mu0: 0, rank: 2, ndensity: 8, num_ms_combs: 2, mus: [0, 1], ns: [3, 1], ls: [1, 1], ms_combs: [0, 0, 1, -1], ctildes: [-0.0053447264837776206, -0.11454539064303443, -0.10943810610314032, -0.038134812028770032, 0.028765937704306001, -0.086563838082693384, -0.098086064835730583, 0.080228475192684265, 0.010689452967555239, 0.22909078128606883, 0.21887621220628059, 0.07626962405754005, -0.057531875408611995, 0.17312767616538674, 0.19617212967146114, -0.1604569503853685]}
    - {mu0: 0, rank: 2, ndensity: 8, num_ms_combs: 3, mus: [0, 1], ns: [3, 1], ls: [2, 2], ms_combs: [0, 0, 1, -1, 2, -2], ctildes: [-0.071327967074635595, -0.054312493488696711, -0.0056034518428361314, -0.0019140803514001838, 0.027263246494693517, -0.082038613637258118, 0.025958663767023278, 0.00010857976033340207, 0.14265593414927119, 0.10862498697739344, 0.011206903685672264, 0.003828160702800368, -0.05452649298938704, 0.16407722727451626, -0.051917327534046563, -0.00021715952066680416, -0.14265593414927125, -0.10862498697739346, -0.011206903685672268, -0.0038281607028003688, 0.054526492989387054, -0.16407722727451632, 0.051917327534046577, 0.00021715952066680421]}
    - {mu0: 0, rank: 2, ndensity: 8, num_ms_combs: 4, mus: [0, 1], ns: [3, 1], ls: [3, 3], ms_combs: [0, 0, 1, -1, 2, -2, 3, -3], ctildes: [-0.013998104426003998, -0.06264635648240241, -0.029842368697836449, 0.018066079450177214, 0.021439466396335049, 0.042676974488192153, -0.027306563608587513, 0.0010882858488402698, 0.027996208852007997, 0.12529271296480482, 0.059684737395672899, -0.036132158900354427, -0.042878932792670098, -0.085353948976384306, 0.054613127217175025, -0.0021765716976805396, -0.027996208852007994, -0.12529271296480479, -0.059684737395672885, 0.036132158900354421, 0.042878932792670091, 0.085353948976384292, -0.054613127217175012, 0.0021765716976805392, 0.027996208852007994, 0.12529271296480479, 0.059684737395672885, -0.036132158900354421, -0.042878932792670091, -0.085353948976384292, 0.054613127217175012, -0.0021765716976805392]}
    - {mu0: 0, rank: 2, ndensity: 8, num_ms_combs: 5, mus: [0, 1], ns: [3, 1], ls: [4, 4], ms_combs: [0, 0, 1, -1, 2, -2, 3, -3, 4, -4], ctildes: [-0.023661981211773521, -0.061748911377160903, -0.0063103200073329454, 0.0088556015110704336, 0.031837123974882232, 0.043602631350581011, -0.0050554800638800334, -0.0057724448927794535, 0.047323962423547014, 0.12349782275432174, 0.012620640014665884, -0.01771120302214086, -0.063674247949764423, -0.087205262701161981, 0.010110960127760062, 0.0115448897855589, -0.047323962423547014, -0.12349782275432174, -0.012620640014665884, 0.01771120302214086, 0.063674247949764423, 0.087205262701161981, -0.010110960127760062, -0.0115448897855589, 0.047323962423547014, 0.12349782275432174, 0.012620640014665884, -0.01771120302214086, -0.063674247949764423, -0.087205262701161981, 0.010110960127760062, 0.0115448897855589, -0.047323962423547028, -0.12349782275432176, -0.012620640014665886, 0.01771120302214086, 0.063674247949764437, 0.087205262701161995, -0.010110960127760063, -0.011544889785558902]}
    - {mu0: 0, rank: 2, ndensity: 8, num_ms_combs: 1, mus: [0, 1], ns: [3, 2], ls: [0, 0], ms_combs: [0, 0], ctildes: [0.082566044653518467, 0.030777456326479314, 0.0407376759124689, -0.1610193835688136, 0.10089676605379673, 0.04910177131729198, 0.021413137999534138, -0.12411378144502566]}
    - {mu0: 0, rank: 2, ndensity: 8, num_ms_combs: 2, mus: [0, 1], ns: [3, 2], ls: [1, 1], ms_combs: [0, 0, 1, -1], ctildes: [-0.036200630038501373, -0.0089286587556289092, 0.066515295619892625, 0.037894556894808966, -0.029064860292551793, -0.011027338847234764, 0.042533817816411544, 0.0084767498803186812, 0.072401260077002733, 0.017857317511257815, -0.13303059123978522, -0.075789113789617918, 0.058129720585103579, 0.022054677694469522, -0.085067635632823074, -0.016953499760637359]}
    - {mu0: 0, rank: 2, ndensity: 8, num_ms_combs: 3, mus: [0, 1], ns: [3, 2], ls: [2, 2], ms_combs: [0, 0, 1, -1, 2, -2], ctildes: [-0.024623362498858214, 0.013651227669063975, 0.005227386495150056, 0.04164069921102613, 1.5564145172298384e-06, 0.01631721615122117, 0.00086228319797918246, 0.032791163825475401, 0.049246724997716436, -0.027302455338127952, -0.010454772990300114, -0.083281398422052275, -3.1128290344596773e-06, -0.032634432302442347, -0.0017245663959583651, -0.065582327650950803, -0.04924672499771645, 0.027302455338127959, 0.010454772990300117, 0.083281398422052288, 3.1128290344596782e-06, 0.032634432302442354, 0.0017245663959583656, 0.065582327650950831]}
    - {mu0: 0, rank: 2, ndensity: 8, num_ms_combs: 4, mus: [0, 1], ns: [3, 2], ls: [3, 3], ms_combs: [0, 0, 1, -1, 2, -2, 3, -3], ctildes: [0.052794454034870091, -0.059365308452459485, -0.044933506610001936, 0.039400667418455236, -0.025558650117230998, -0.052607767524605165, -0.028749228838339237, 0.0015606165019203116, -0.10558890806974018, 0.11873061690491897, 0.089867013220003872, -0.078801334836910472, 0.051117300234461996, 0.10521553504921033, 0.057498457676678473, -0.0031212330038406233, 0.10558890806974017, -0.11873061690491896, -0.089867013220003858, 0.078801334836910458, -0.051117300234461989, -0.10521553504921032, -0.057498457676678466, 0.0031212330038406229, -0.10558890806974017, 0.11873061690491896, 0.089867013220003858, -0.078801334836910458, 0.051117300234461989, 0.10521553504921032, 0.057498457676678466, -0.0031212330038406229]}
    - {mu0: 0, rank: 2, ndensity: 8, num_ms_combs: 5, mus: [0, 1], ns: [3, 2], ls: [4, 4], ms_combs: [0, 0, 1, -1, 2, -2, 3, -3, 4, -4], ctildes: [0.018632650766723186, -0.0057316374965587598, 0.0072378646231434814, -0.0052560066658288215, -0.019631205716329002, 0.015927324317958728, 0.022162320350671151, 0.0032453484372407639, -0.03726530153344635, 0.011463274993117514, -0.014475729246286954, 0.010512013331657638, 0.039262411432657983, -0.031854648635917443, -0.044324640701342281, -0.0064906968744815243, 0.03726530153344635, -0.011463274993117514, 0.014475729246286954, -0.010512013331657638, -0.039262411432657983, 0.031854648635917443, 0.044324640701342281, 0.0064906968744815243, -0.03726530153344635, 0.011463274993117514, -0.014475729246286954, 0.010512013331657638, 0.039262411432657983, -0.031854648635917443, -0.044324640701342281, -0.0064906968744815243, 0.037265301533446357, -0.011463274993117516, 0.014475729246286958, -0.010512013331657639, -0.03926241143265799, 0.031854648635917443, 0.044324640701342288, 0.006490696874481526]}
    - {mu0: 0, rank: 2, ndensity: 8, num_ms_combs: 1, mus: [0, 1], ns: [3, 3], ls: [0, 0], ms_combs: [0, 0], ctildes: [-0.011499549878159543, 0.00055755770346514483, 0.037890955653099273, 0.01125240822511801, 0.04643412476395796, 0.017138843172889662, 0.034533348244726286, -0.0073379780861844894]}
    - {mu0: 0, rank: 2, ndensity: 8, num_ms_combs: 2, mus: [0, 1], ns: [3, 3], ls: [1, 1], ms_combs: [0, 0, 1, -1], ctildes: [0.0052370636713581342, -0.0068807833867866571, 0.064644158727877737, 0.029608067718390422, -0.032701316951009758, 0.032904052643660024, 0.030241405278605558, 0.0096100020065281785, -0.010474127342716267, 0.013761566773573312, -0.12928831745575545, -0.059216135436780837, 0.065402633902019502, -0.065808105287320035, -0.060482810557211102, -0.019220004013056353]}
    - {mu0: 0, rank: 2, ndensity: 8, num_ms_combs: 3, mus: [0, 1], ns: [3, 3], ls: [2, 2], ms_combs: [0, 0, 1, -1, 2, -2], ctildes: [0.020789303359026925, -0.028420159815662101, 0.01676834151842722, 0.012051263799087081, 0.027782146866548233, 0.011523839363601549, -0.016555003184046801, -0.010558746544297868, -0.041578606718053857, 0.056840319631324208, -0.033536683036854441, -0.024102527598174165, -0.055564293733096473, -0.023047678727203098, 0.033110006368093609, 0.021117493088595736, 0.041578606718053863, -0.056840319631324222, 0.033536683036854455, 0.024102527598174172, 0.05556429373309648, 0.023047678727203105, -0.033110006368093615, -0.021117493088595743]}
    - {mu0: 0, rank: 2, ndensity: 8, num_ms_combs: 4, mus: [0, 1], ns: [3, 3], ls: [3, 3], ms_combs: [0, 0, 1, -1, 2, -2, 3, -3], ctildes: [-0.02174665191286965, 0.037773588198422664, 0.01521661351744677, 0.018933146086981004, 0.019365031778153689, -0.011203515509786445, -0.0076897740451909256, 0.010434631618766843, 0.0434933038257393, -0.075547176396845328, -0.03043322703489354, -0.037866292173962007, -0.038730063556307377, 0.022407031019572889, 0.015379548090381851, -0.020869263237533686, -0.043493303825739293, 0.075547176396845314, 0.030433227034893536, 0.037866292173962, 0.038730063556307377, -0.022407031019572886, -0.015379548090381849, 0.020869263237533683, 0.043493303825739293, -0.075547176396845314, -0.030433227034893536, -0.037866292173962, -0.038730063556307377, 0.022407031019572886, 0.015379548090381849, -0.020869263237533683]}
    - {mu0: 0, rank: 2, ndensity: 8, num_ms_combs: 5, mus: [0, 1], ns: [3, 3], ls: [4, 4], ms_combs: [0, 0, 1, -1, 2, -2, 3, -3, 4, -4], ctildes: [-0.014924270683980778, 0.0015375908001687875, -0.019746693732798692, 0.015810751262090621, 0.018129532259661105, -0.013996642147639926, -0.036468402688884773, 0.0046850935648663971, 0.029848541367961539, -0.0030751816003375732, 0.039493387465597364, -0.031621502524181222, -0.036259064519322197, 0.027993284295279839, 0.072936805377769517, -0.0093701871297327908, -0.029848541367961539, 0.0030751816003375732, -0.039493387465597364, 0.031621502524181222, 0.036259064519322197, -0.027993284295279839, -0.072936805377769517, 0.0093701871297327908, 0.029848541367961539, -0.0030751816003375732, 0.039493387465597364, -0.031621502524181222, -0.036259064519322197, 0.027993284295279839, 0.072936805377769517, -0.0093701871297327908, -0.029848541367961546, 0.0030751816003375737, -0.039493387465597371, 0.031621502524181229, 0.036259064519322204, -0.027993284295279842, -0.072936805377769531, 0.0093701871297327925]}
    - {mu0: 0, rank: 2, ndensity: 8, num_ms_combs: 1, mus: [1, 1], ns: [1, 1], ls: [0, 0], ms_combs: [0, 0], ctildes: [0.023483296149930031, -0.10668751412004714, 0.26302309264771123, 0.020269474623849676, -0.27520307281034173, -0.051516495364331658, 0.25534854595765416, -0.12752930176202729]}
    - {mu0: 0, rank: 2, ndensity: 8, num_ms_combs: 2, mus: [1, 1], ns: [1, 1], ls: [1, 1], ms_combs: [0, 0, 1, -1], ctildes: [-0.20440207855441087, -0.066459102060659428, -0.13304498205098964, -0.16681037830726292, -0.17175225458156726, -0.15554731460625873, -0.10263096475672527, -0.042791151554212058, 0.40880415710882168, 0.13291820412131883, 0.26608996410197922, 0.33362075661452578, 0.34350450916313446, 0.3110946292125174, 0.20526192951345049, 0.085582303108424088]}
    - {mu0: 0, rank: 2, ndensity: 8, num_ms_combs: 3, mus: [1, 1], ns: [1, 1], ls: [2, 2], ms_combs: [0, 0, 1, -1, 2, -2], ctildes: [-0.096536375621155524, -0.064288357311372737, -0.1473795563341373, -0.033375321598021104, 0.0022884844744811336, -0.21906768491388989, -0.056348630516677177, -0.031332554658609506, 0.19307275124231105, 0.12857671462274547, 0.29475911266827465, 0.066750643196042209, -0.0045769689489622671, 0.43813536982777984, 0.11269726103335437, 0.062665109317219025, -0.1930727512423111, -0.1285767146227455, -0.2947591126682747, -0.066750643196042236, 0.0045769689489622688, -0.43813536982777995, -0.1126972610333544, -0.062665109317219039]}
    - {mu0: 0, rank: 2, ndensity: 8, num_ms_combs: 4, mus: [1, 1], ns: [1, 1], ls: [3, 3], ms_combs: [0, 0, 1, -1, 2, -2, 3, -3], ctildes: [0.079488166131959831, -0.057661042802232242, -0.090206856960757975, -0.027336309873167462, 0.0067581885057856296, -0.17743638792006572, -0.0078441640465140728, -0.0075064314811365508, -0.15897633226391966, 0.11532208560446448, 0.18041371392151595, 0.054672619746334923, -0.013516377011571259, 0.35487277584013144, 0.015688328093028146, 0.015012862962273102, 0.15897633226391963, -0.11532208560446446, -0.18041371392151592, -0.054672619746334916, 0.013516377011571257, -0.35487277584013138, -0.015688328093028142, -0.015012862962273098, -0.15897633226391963, 0.11532208560446446, 0.18041371392151592, 0.054672619746334916, -0.013516377011571257, 0.35487277584013138, 0.015688328093028142, 0.015012862962273098]}
    - {mu0: 0, rank: 2, ndensity: 8, num_ms_combs: 5, mus: [1, 1], ns: [1, 1], ls: [4, 4], ms_combs: [0, 0, 1, -1, 2, -2, 3, -3, 4, -4], ctildes: [0.011322993551874291, -0.0072786457332306397, -0.077152975766386939, -0.0016953345051964575, -0.0086908260892129257, -0.089040327992163076, 0.04136723683773115, 0.0020701549798679288, -0.022645987103748572, 0.014557291466461271, 0.15430595153277379, 0.0033906690103929133, 0.017381652178425841, 0.17808065598432607, -0.082734473675462258, -0.0041403099597358559, 0.022645987103748572, -0.014557291466461271, -0.15430595153277379, -0.0033906690103929133, -0.017381652178425841, -0.17808065598432607, 0.082734473675462258, 0.0041403099597358559, -0.022645987103748572, 0.014557291466461271, 0.15430595153277379, 0.0033906690103929133, 0.017381652178425841, 0.17808065598432607, -0.082734473675462258, -0.0041403099597358559, 0.022645987103748575, -0.014557291466461274, -0.15430595153277382, -0.0033906690103929138, -0.017381652178425844, -0.1780806559843261, 0.082734473675462272, 0.0041403099597358568]}
    - {mu0: 0, rank: 2, ndensity: 8, num_ms_combs: 1, mus: [1, 1], ns: [1, 2], ls: [0, 0], ms_combs: [0, 0], ctildes: [-0.0089868746185816258, -0.00031421141790918383, 0.25735155758296169, 0.1613413665913534, 0.020083164338830648, 0.067826993372375383, 0.17455481238944817, -0.38068885973543853]}
    - {mu0: 0, rank: 2, ndensity: 8, num_ms_combs: 2, mus: [1, 1], ns: [1, 2], ls: [1, 1], ms_combs: [0, 0, 1, -1], ctildes: [-0.084348648247766861, -0.070094649105305107, 0.032212848132715237, -0.027201990753164953, -0.077837891126021547, -0.080245633809025774, -0.0152030248659402, -0.15330106265735735, 0.16869729649553369, 0.14018929821061019, -0.06442569626543046, 0.054403981506329899, 0.15567578225204307, 0.16049126761805152, 0.030406049731880394, 0.30660212531471465]}
    - {mu0: 0, rank: 2, ndensity: 8, num_ms_combs: 3, mus: [1, 1], ns: [1, 2], ls: [2, 2], ms_combs: [0, 0, 1, -1, 2, -2], ctildes: [-0.073552995265653329, -0.050723970766020379, 0.012850079322667508, -0.025138296203072188, -0.060037304045994971, -0.10141117674205509, -0.018280594067107071, -0.08224299603368021, 0.14710599053130666, 0.10144794153204077, -0.025700158645335019, 0.050276592406144384, 0.12007460809198996, 0.20282235348411021, 0.036561188134214141, 0.16448599206736042, -0.14710599053130671, -0.1014479415320408, 0.025700158645335026, -0.050276592406144391, -0.12007460809198998, -0.20282235348411026, -0.036561188134214148, -0.16448599206736048]}
    - {mu0: 0, rank: 2, ndensity: 8, num_ms_combs: 4, mus: [1, 1], ns: [1, 2], ls: [3, 3], ms_combs: [0, 0, 1, -1, 2, -2, 3, -3], ctildes: [-0.11928699277984006, -0.0089409359367580536, -0.0071316588273786577, 0.063118454332830351, 0.015346468947471839, -0.10887495113260771, -0.04904755658115563, 0.020616935877768573, 0.23857398555968012, 0.017881871873516107, 0.014263317654757315, -0.1262369086656607, -0.030692937894943678, 0.21774990226521543, 0.098095113162311259, -0.041233871755537145, -0.23857398555968007, -0.017881871873516104, -0.014263317654757314, 0.12623690866566067, 0.030692937894943675, -0.2177499022652154, -0.098095113162311245, 0.041233871755537138, 0.23857398555968007, 0.017881871873516104, 0.014263317654757314, -0.12623690866566067, -0.030692937894943675, 0.2177499022652154, 0.098095113162311245, -0.041233871755537138]}
    - {mu0: 0, rank: 2, ndensity: 8, num_ms_combs: 5, mus: [1, 1], ns: [1, 2], ls: [4, 4], ms_combs: [0, 0, 1, -1, 2, -2, 3, -3, 4, -4], ctildes: [-0.0421113662695475, 0.014593468665389138, -0.037580912830185297, 0.024134951793723654, 0.027155694064788842, -0.054932475390415632, -0.0044543294542710096, 0.0017020465592223722, 0.084222732539094958, -0.029186937330778259, 0.075161825660370551, -0.048269903587447288, -0.054311388129577656, 0.10986495078083121, 0.0089086589085420158, -0.0034040931184447427, -0.084222732539094958, 0.029186937330778259, -0.075161825660370551, 0.048269903587447288, 0.054311388129577656, -0.10986495078083121, -0.0089086589085420158, 0.0034040931184447427, 0.084222732539094958, -0.029186937330778259, 0.075161825660370551, -0.048269903587447288, -0.054311388129577656, 0.10986495078083121, 0.0089086589085420158, -0.0034040931184447427, -0.084222732539094972, 0.029186937330778265, -0.075161825660370565, 0.048269903587447295, 0.05431138812957767, -0.10986495078083122, -0.0089086589085420158, 0.0034040931184447431]}
    - {mu0: 0, rank: 2, ndensity: 8, num_ms_combs: 1, mus: [1, 1], ns: [1, 3], ls: [0, 0], ms_combs: [0, 0], ctildes: [-0.027018046881784892, 0.010204632387448434, 0.15003146976061982, -0.17886288416488846, -0.042770293563893537, 0.025869989410105845, 0.11590780126053865, 0.090479232709972254]}
    - {mu0: 0, rank: 2, ndensity: 8, num_ms_combs: 2, mus: [1, 1], ns: [1, 3], ls: [1, 1], ms_combs: [0, 0, 1, -1], ctildes: [0.042102205511337372, -0.074909126390771158, 0.04815462973851535, 0.085717695239011876, -0.10634925307485625, 0.015677534959422354, 0.030682252065562986, 0.015569992327496746, -0.08420441102267473, 0.14981825278154229, -0.096309259477030687, -0.17143539047802372, 0.21269850614971247, -0.031355069918844701, -0.061364504131125965, -0.031139984654993489]}
    - {mu0: 0, rank: 2, ndensity: 8, num_ms_combs: 3, mus: [1, 1], ns: [1, 3], ls: [2, 2], ms_combs: [0, 0, 1, -1, 2, -2], ctildes: [0.036537081386128489, -0.10711136043037704, -0.0038010086830198128, 0.0054744732306039748, 0.032701899899265072, -0.062793369080050301, -0.061721582999148754, 0.025026961209792881, -0.073074162772256993, 0.21422272086075411, 0.0076020173660396274, -0.010948946461207951, -0.065403799798530157, 0.1255867381601006, 0.12344316599829752, -0.05005392241958577, 0.073074162772257006, -0.21422272086075417, -0.0076020173660396291, 0.010948946461207955, 0.065403799798530171, -0.12558673816010063, -0.12344316599829755, 0.050053922419585777]}
    - {mu0: 0, rank: 2, ndensity: 8, num_ms_combs: 4, mus: [1, 1], ns: [1, 3], ls: [3, 3], ms_combs: [0, 0, 1, -1, 2, -2, 3, -3], ctildes: [-0.026946124817456719, 0.051724347656183903, 0.048130463156495364, -0.0008090705477386737, -0.021025677961984103, 0.022184549760495317, 0.040534379101729308, 0.031970219014549398, 0.053892249634913438, -0.10344869531236781, -0.096260926312990727, 0.0016181410954773474, 0.042051355923968206, -0.044369099520990635, -0.081068758203458616, -0.063940438029098795, -0.053892249634913431, 0.10344869531236779, 0.096260926312990713, -0.0016181410954773472, -0.042051355923968199, 0.044369099520990628, 0.081068758203458616, 0.063940438029098781, 0.053892249634913431, -0.10344869531236779, -0.096260926312990713, 0.0016181410954773472, 0.042051355923968199, -0.044369099520990628, -0.081068758203458616, -0.063940438029098781]}
    - {mu0: 0, rank: 2, ndensity: 8, num_ms_combs: 5, mus: [1, 1], ns: [1, 3], ls: [4, 4], ms_combs: [0, 0, 1, -1, 2, -2, 3, -3, 4, -4], ctildes: [-0.0054812557780195828, 0.0075292414528626023, -0.0055504805782832459, 0.019540604927595986, -0.014566563342131677, -0.0041996256211942013, -0.037917931388704099, 0.019446432020283046, 0.01096251155603916, -0.015058482905725198, 0.011100961156566487, -0.039081209855191951, 0.029133126684263339, 0.0083992512423883992, 0.075835862777408156, -0.038892864040566071, -0.01096251155603916, 0.015058482905725198, -0.011100961156566487, 0.039081209855191951, -0.029133126684263339, -0.0083992512423883992, -0.075835862777408156, 0.038892864040566071, 0.01096251155603916, -0.015058482905725198, 0.011100961156566487, -0.039081209855191951, 0.029133126684263339, 0.0083992512423883992, 0.075835862777408156, -0.038892864040566071, -0.010962511556039162, 0.015058482905725201, -0.011100961156566488, 0.039081209855191958, -0.029133126684263343, -0.008399251242388401, -0.075835862777408169, 0.038892864040566077]}
    - {mu0: 0, rank: 2, ndensity: 8, num_ms_combs: 1, mus: [1, 1], ns: [2, 2], ls: [0, 0], ms_combs: [0, 0], ctildes: [0.12455603091635034, 0.033865439941520699, 0.15092630735633933, 0.19121043874105575, -0.019021907736737745, -0.013773860530838062, 0.18440800439531116, 0.065517839964815999]}
    - {mu0: 0, rank: 2, ndensity: 8, num_ms_combs: 2, mus: [1, 1], ns: [2, 2], ls: [1, 1], ms_combs: [0, 0, 1, -1], ctildes: [-0.028256318170770917, -0.070580794358662158, -0.057148211275528812, 0.03096841348025552, -0.11260452149364192, -0.10465364755783815, -0.031541000029318859, 0.061962348684496356, 0.056512636341541828, 0.14116158871732429, 0.11429642255105761, -0.061936826960511025, 0.22520904298728381, 0.20930729511567628, 0.063082000058637705, -0.12392469736899268]}
    - {mu0: 0, rank: 2, ndensity: 8, num_ms_combs: 3, mus: [1, 1], ns: [2, 2], ls: [2, 2], ms_combs: [0, 0, 1, -1, 2, -2], ctildes: [-0.021209512071034976, -0.043093064093753929, -0.029982076443463443, 0.020254570099278286, -0.081236229270654978, -0.10392944464054606, -0.0089009262030839142, 0.041796415203425266, 0.04241902414206996, 0.086186128187507871, 0.059964152886926893, -0.04050914019855658, 0.16247245854130996, 0.20785888928109214, 0.017801852406167832, -0.083592830406850532, -0.042419024142069967, -0.086186128187507899, -0.059964152886926914, 0.040509140198556587, -0.16247245854131001, -0.20785888928109217, -0.017801852406167835, 0.08359283040685056]}
    - {mu0: 0, rank: 2, ndensity: 8, num_ms_combs: 4, mus: [1, 1], ns: [2, 2], ls: [3, 3], ms_combs: [0, 0, 1, -1, 2, -2, 3, -3], ctildes: [0.0054689007395373728, -0.016199996071311482, 0.017870021516856485, -0.014570282026361446, -0.032070851186286754, -0.11919225058127757, 0.051772094060777034, 0.014917270933460167, -0.010937801479074746, 0.032399992142622965, -0.035740043033712969, 0.029140564052722893, 0.064141702372573509, 0.23838450116255513, -0.10354418812155407, -0.029834541866920333, 0.010937801479074744, -0.032399992142622958, 0.035740043033712962, -0.029140564052722889, -0.064141702372573495, -0.23838450116255508, 0.10354418812155405, 0.02983454186692033, -0.010937801479074744, 0.032399992142622958, -0.035740043033712962, 0.029140564052722889, 0.064141702372573495, 0.23838450116255508, -0.10354418812155405, -0.02983454186692033]}
    - {mu0: 0, rank: 2, ndensity: 8, num_ms_combs: 5, mus: [1, 1], ns: [2, 2], ls: [4, 4], ms_combs: [0, 0, 1, -1, 2, -2, 3, -3, 4, -4], ctildes: [0.036033120513258958, -0.0077874090686349652, -0.0094916074827559316, -0.0084569294491093662, -0.032798051180104114, -0.0982192420741375, 0.039279109307720064, -0.0026204079028302445, -0.072066241026517874, 0.015574818137269924, 0.018983214965511853, 0.016913858898218725, 0.0655961023602082, 0.19643848414827492, -0.078558218615440087, 0.0052408158056604865, 0.072066241026517874, -0.015574818137269924, -0.018983214965511853, -0.016913858898218725, -0.0655961023602082, -0.19643848414827492, 0.078558218615440087, -0.0052408158056604865, -0.072066241026517874, 0.015574818137269924, 0.018983214965511853, 0.016913858898218725, 0.0655961023602082, 0.19643848414827492, -0.078558218615440087, 0.0052408158056604865, 0.072066241026517888, -0.015574818137269925, -0.018983214965511856, -0.016913858898218725, -0.065596102360208214, -0.19643848414827494, 0.078558218615440101, -0.0052408158056604873]}
    - {mu0: 0, rank: 2, ndensity: 8, num_ms_combs: 1, mus: [1, 1], ns: [2, 3], ls: [0, 0], ms_combs: [0, 0], ctildes: [-0.16253308876875616, 0.02326014745107231, 0.0031002700961936143, 0.017637556914991789, 0.05287321226772837, -0.057278152687603126, -0.010633763609590119, 0.29550849244973709]}
    - {mu0: 0, rank: 2, ndensity: 8, num_ms_combs: 2, mus: [1, 1], ns: [2, 3], ls: [1, 1], ms_combs: [0, 0, 1, -1], ctildes: [-0.087426056182167824, 0.029745268165654808, -0.0065953123087666293, 0.11849009853730032, -0.13053903757584071, -0.027568062063665088, -0.029185855597076222, 0.017044360098042451, 0.17485211236433562, -0.059490536331309608, 0.013190624617533257, -0.23698019707460058, 0.26107807515168135, 0.055136124127330169, 0.05837171119415243, -0.034088720196084894]}
    - {mu0: 0, rank: 2, ndensity: 8, num_ms_combs: 3, mus: [1, 1], ns: [2, 3], ls: [2, 2], ms_combs: [0, 0, 1, -1, 2, -2], ctildes: [-0.15986493153259398, -0.021930875262591677, -0.044800133904484694, 0.0044478783662381324, 0.0078945660221668313, -0.055759337840762556, -0.088759116988201325, 0.085366972951082712, 0.31972986306518797, 0.04386175052518336, 0.089600267808969403, -0.0088957567324762666, -0.015789132044333666, 0.11151867568152513, 0.17751823397640265, -0.17073394590216545, -0.31972986306518808, -0.043861750525183367, -0.089600267808969417, 0.0088957567324762683, 0.01578913204433367, -0.11151867568152515, -0.17751823397640271, 0.17073394590216548]}
    - {mu0: 0, rank: 2, ndensity: 8, num_ms_combs: 4, mus: [1, 1], ns: [2, 3], ls: [3, 3], ms_combs: [0, 0, 1, -1, 2, -2, 3, -3], ctildes: [-0.029051750817868153, 0.013372753596230153, 0.025699995792684494, 0.025277405208152342, 0.055200576865547565, -0.020182784429300913, 0.016684064044857477, -0.022518893135839192, 0.058103501635736306, -0.026745507192460306, -0.051399991585368988, -0.050554810416304684, -0.11040115373109513, 0.040365568858601826, -0.033368128089714955, 0.045037786271678384, -0.058103501635736299, 0.026745507192460303, 0.051399991585368981, 0.050554810416304677, 0.11040115373109512, -0.040365568858601819, 0.033368128089714955, -0.045037786271678384, 0.058103501635736299, -0.026745507192460303, -0.051399991585368981, -0.050554810416304677, -0.11040115373109512, 0.040365568858601819, -0.033368128089714955, 0.045037786271678384]}
    - {mu0: 0, rank: 2, ndensity: 8, num_ms_combs: 5, mus: [1, 1], ns: [2, 3], ls: [4, 4], ms_combs: [0, 0, 1, -1, 2, -2, 3, -3, 4, -4], ctildes: [-0.017456703930032329, 0.033221317656962332, 0.045788367660952234, -0.010317773948158644, 0.025674259246605356, -0.0072924527671318533, -0.003290892809540241, -0.01103129677829788, 0.034913407860064645, -0.066442635313924636, -0.091576735321904426, 0.020635547896317278, -0.051348518493210683, 0.0145849055342637, 0.0065817856190804784, 0.022062593556595751, -0.034913407860064645, 0.066442635313924636, 0.091576735321904426, -0.020635547896317278, 0.051348518493210683, -0.0145849055342637, -0.0065817856190804784, -0.022062593556595751, 0.034913407860064645, -0.066442635313924636, -0.091576735321904426, 0.020635547896317278, -0.051348518493210683, 0.0145849055342637, 0.0065817856190804784, 0.022062593556595751, -0.034913407860064652, 0.066442635313924636, 0.09157673532190444, -0.020635547896317281, 0.05134851849321069, -0.014584905534263701, -0.0065817856190804793, -0.022062593556595754]}
    - {mu0: 0, rank: 2, ndensity: 8, num_ms_combs: 1, mus: [1, 1], ns: [3, 3], ls: [0, 0], ms_combs: [0, 0], ctildes: [-0.14920495344974097, -0.07190065040098724, -0.14483995005944472, 0.18449040477505244, -0.073469824725721694, -0.11727898661024401, -0.069071521068344272, 0.025583508601357788]}
    - {mu0: 0, rank: 2, ndensity: 8, num_ms_combs: 2, mus: [1, 1], ns: [3, 3], ls: [1, 1], ms_combs: [0, 0, 1, -1], ctildes: [-0.19250462831427209, 0.058331769397979183, -0.052352454720284741, 0.13408756686184903, 0.053076095997700551, -0.082651630491171427, -0.099528605260867625, 0.091821225726487224, 0.38500925662854407, -0.11666353879595835, 0.10470490944056947, -0.268175133723698, -0.10615219199540109, 0.16530326098234283, 0.19905721052173522, -0.18364245145297442]}
    - {mu0: 0, rank: 2, ndensity: 8, num_ms_combs: 3, mus: [1, 1], ns: [3, 3], ls: [2, 2], ms_combs: [0, 0, 1, -1, 2, -2], ctildes: [-0.16186717980986701, -0.0053131293060924489, 0.025298884202171808, 0.043130189402799779, 0.032692729327180745, -0.056124848967633173, 0.020680614913243436, 0.054468898595855526, 0.32373435961973407, 0.0106262586121849, -0.050597768404343622, -0.086260378805599558, -0.065385458654361489, 0.11224969793526636, -0.041361229826486878, -0.10893779719171107, -0.32373435961973418, -0.010626258612184901, 0.050597768404343636, 0.086260378805599586, 0.065385458654361503, -0.11224969793526639, 0.041361229826486885, 0.10893779719171109]}
    - {mu0: 0, rank: 2, ndensity: 8, num_ms_combs: 4, mus: [1, 1], ns: [3, 3], ls: [3, 3], ms_combs: [0, 0, 1, -1, 2, -2, 3, -3], ctildes: [-0.023337757012006872, 0.032403214314365755, -0.037530587102401786, 0.014641557152880201, -0.0041485065649491401, -0.1047418199319551, -0.090692555673755601, 0.031633374979465251, 0.046675514024013744, -0.064806428628731511, 0.075061174204803571, -0.029283114305760402, 0.0082970131298982803, 0.20948363986391019, 0.1813851113475112, -0.063266749958930502, -0.046675514024013737, 0.064806428628731497, -0.075061174204803557, 0.029283114305760399, -0.0082970131298982785, -0.20948363986391016, -0.18138511134751117, 0.063266749958930502, 0.046675514024013737, -0.064806428628731497, 0.075061174204803557, -0.029283114305760399, 0.0082970131298982785, 0.20948363986391016, 0.18138511134751117, -0.063266749958930502]}
